{"learner":{"attributes":{"scikit_learn":"{\"_estimator_type\": \"regressor\"}"},"feature_names":["pm25_lag1","pm25_lag2","pm25_lag3","weather_temperature_2m_mean","weather_precipitation_sum","weather_wind_speed_10m_max","weather_wind_direction_10m_dominant"],"feature_types":["float","float","float","float","float","float","float"],"gradient_booster":{"model":{"gbtree_model_param":{"num_parallel_tree":"1","num_trees":"100"},"iteration_indptr":[0,1,2,3,4,5,6,7,8,9,10,11,12,13,14,15,16,17,18,19,20,21,22,23,24,25,26,27,28,29,30,31,32,33,34,35,36,37,38,39,40,41,42,43,44,45,46,47,48,49,50,51,52,53,54,55,56,57,58,59,60,61,62,63,64,65,66,67,68,69,70,71,72,73,74,75,76,77,78,79,80,81,82,83,84,85,86,87,88,89,90,91,92,93,94,95,96,97,98,99,100],"tree_info":[0,0,0,0,0,0,0,0,0,0,0,0,0,0,0,0,0,0,0,0,0,0,0,0,0,0,0,0,0,0,0,0,0,0,0,0,0,0,0,0,0,0,0,0,0,0,0,0,0,0,0,0,0,0,0,0,0,0,0,0,0,0,0,0,0,0,0,0,0,0,0,0,0,0,0,0,0,0,0,0,0,0,0,0,0,0,0,0,0,0,0,0,0,0,0,0,0,0,0,0],"trees":[{"base_weights":[4.818961E-7,-2.2757833E1,4.2259964E1,-4.3650665E1,-9.279945E0,3.4503166E1,1.2828433E2,-3.4612957E1,-5.5897484E1,6.584624E0,-1.9531895E1,5.4129593E1,1.5993631E1,1.7260074E2,4.5038376E1,-4.767361E1,-2.9429695E1,-6.711747E1,-4.7394253E1,1.9473951E1,-7.213755E0,-9.59195E0,-3.347322E1,3.9897774E1,7.571623E1,2.9302088E1,-4.177707E0,1.2949858E2,2.0100461E2,1.7333054E1,1.2154128E2,-4.1966812E1,-1.695564E1,-2.2838358E1,-3.609985E1,-5.1622265E1,-2.146658E1,-4.1663826E1,-6.3576393E1,2.7427431E1,1.7385924E0,-1.1735041E1,1.6079502E1,-2.6143013E1,-5.305461E0,-3.4580017E1,3.4396065E1,4.2012886E1,1.2630052E1,9.567125E1,6.3078773E1,1.5084513E1,4.753103E1,-1.5050903E1,1.2844977E1,-3.6306887E0,1.343018E2,2.1377553E2,5.863633E1,-1.0140918E1,2.1868896E1,3.9934765E1,8.693116E-1,-1.3798893E1,-9.624278E0,-3.251952E0,-9.904924E0,-1.150931E1,-3.9985004E-1,-1.723871E1,-5.228705E0,-1.1128306E1,-1.6894835E1,-1.9465164E1,2.8193116E0,3.212924E0,1.1547967E1,9.079446E0,-2.3748658E0,-1.8010701E0,-9.491879E0,3.1036544E0,1.4947392E1,-2.3448658E0,-9.974933E0,-3.2038715E0,3.4761524E-1,-6.0373654E0,-1.2087478E1,-7.189102E0,3.6059082E1,1.5333033E1,1.0555427E1,2.0559082E1,1.7853408E0,3.3484184E1,1.7747055E1,2.1550728E1,6.144387E0,-1.9250481E0,7.0389953E0,1.9363512E0,1.5471924E1,-8.927286E0,-2.0707487E-1,-2.3867095E0,7.7303367E0,4.1640606E1,-7.806885E-1,7.2155106E1,4.192027E1,1.3193116E0,2.1328968E1,7.616602E0,-1.2030689E1],"categories":[],"categories_nodes":[],"categories_segments":[],"categories_sizes":[],"default_left":[0,0,0,0,0,0,0,0,0,0,0,0,0,0,0,0,0,0,0,0,0,0,0,0,0,0,0,0,0,0,0,0,0,0,0,0,0,0,0,0,0,0,0,0,0,0,0,0,0,0,0,0,0,0,0,0,0,0,0,0,0,0,0,0,0,0,0,0,0,0,0,0,0,0,0,0,0,0,0,0,0,0,0,0,0,0,0,0,0,0,0,0,0,0,0,0,0,0,0,0,0,0,0,0,0,0,0,0,0,0,0,0,0,0,0],"id":0,"left_children":[1,3,5,7,9,11,13,15,17,19,21,23,25,27,29,31,33,35,37,39,41,43,45,47,49,51,53,55,57,59,61,63,-1,65,67,69,-1,71,73,75,77,79,81,83,85,87,89,91,93,95,97,99,101,103,105,-1,107,109,111,-1,113,-1,-1,-1,-1,-1,-1,-1,-1,-1,-1,-1,-1,-1,-1,-1,-1,-1,-1,-1,-1,-1,-1,-1,-1,-1,-1,-1,-1,-1,-1,-1,-1,-1,-1,-1,-1,-1,-1,-1,-1,-1,-1,-1,-1,-1,-1,-1,-1,-1,-1,-1,-1,-1,-1],"loss_changes":[3.8989152E6,7.4158775E5,9.4243575E5,1.12400875E5,2.6084497E5,4.72483E5,4.23858E5,3.9011938E4,3.851175E4,1.12187125E5,1.3465194E5,1.9114038E5,1.8052039E5,6.70145E4,8.691389E4,6.108375E3,1.8080594E4,9.0963125E3,2.0719188E4,4.5937164E4,3.230991E4,4.0300492E4,3.1612031E4,2.1558625E4,5.701025E4,1.0424744E5,4.979771E4,2.407E4,6.7464625E4,8.1614863E3,1.4720031E4,2.7469062E3,0E0,2.638675E4,1.6639719E4,7.984617E3,0E0,1.0565156E4,6.716172E3,4.1211484E4,2.8331943E4,2.9015152E4,9.159247E3,1.497868E4,1.5783974E4,3.2131938E4,3.793158E4,2.025325E4,1.04194E4,4.8700375E4,5.6720688E4,4.1406176E4,2.9055031E4,3.4615945E4,2.8429336E4,0E0,2.0076312E4,4.55905E4,3.0664668E3,0E0,7.561885E3,0E0,0E0,0E0,0E0,0E0,0E0,0E0,0E0,0E0,0E0,0E0,0E0,0E0,0E0,0E0,0E0,0E0,0E0,0E0,0E0,0E0,0E0,0E0,0E0,0E0,0E0,0E0,0E0,0E0,0E0,0E0,0E0,0E0,0E0,0E0,0E0,0E0,0E0,0E0,0E0,0E0,0E0,0E0,0E0,0E0,0E0,0E0,0E0,0E0,0E0,0E0,0E0,0E0,0E0],"parents":[2147483647,0,0,1,1,2,2,3,3,4,4,5,5,6,6,7,7,8,8,9,9,10,10,11,11,12,12,13,13,14,14,15,15,16,16,17,17,18,18,19,19,20,20,21,21,22,22,23,23,24,24,25,25,26,26,27,27,28,28,29,29,30,30,31,31,33,33,34,34,35,35,37,37,38,38,39,39,40,40,41,41,42,42,43,43,44,44,45,45,46,46,47,47,48,48,49,49,50,50,51,51,52,52,53,53,54,54,56,56,57,57,58,58,60,60],"right_children":[2,4,6,8,10,12,14,16,18,20,22,24,26,28,30,32,34,36,38,40,42,44,46,48,50,52,54,56,58,60,62,64,-1,66,68,70,-1,72,74,76,78,80,82,84,86,88,90,92,94,96,98,100,102,104,106,-1,108,110,112,-1,114,-1,-1,-1,-1,-1,-1,-1,-1,-1,-1,-1,-1,-1,-1,-1,-1,-1,-1,-1,-1,-1,-1,-1,-1,-1,-1,-1,-1,-1,-1,-1,-1,-1,-1,-1,-1,-1,-1,-1,-1,-1,-1,-1,-1,-1,-1,-1,-1,-1,-1,-1,-1,-1,-1],"split_conditions":[1.28E2,6.3E1,2.51E2,2.4534409E2,1.4081478E1,1.5277749E1,1.457889E1,3.6E1,3.8E1,1.6233164E1,2.4323944E2,1.69E2,2.4136223E2,2.86E2,1.2362332E1,1.935375E1,1.8989416E1,1.4168641E1,2.34E1,1.19E2,1.15E2,4.1077908E1,3.592927E2,1.99E2,1.0185519E1,1.63E2,1.67E2,-2.1439164E0,3.69E2,-3.6084998E0,3.69E2,3.2E1,-1.695564E1,1.3339445E1,1.5E2,1.75E2,-2.146658E1,1.11E2,3.7554058E1,5.8E1,9.114471E0,2.1284236E2,1.3202726E1,6.6E1,9.4E1,6.4E1,2.1479666E1,1.0948973E1,1.33E2,1.8089415E1,1.9E2,1.3997501E1,1.2269167E0,1.1070667E1,2.2406927E1,-3.6306887E0,3.2900455E2,5.4602494E0,3.35E2,-1.0140918E1,1.1937084E1,3.9934765E1,8.693116E-1,-1.3798893E1,-9.624278E0,-3.251952E0,-9.904924E0,-1.150931E1,-3.9985004E-1,-1.723871E1,-5.228705E0,-1.1128306E1,-1.6894835E1,-1.9465164E1,2.8193116E0,3.212924E0,1.1547967E1,9.079446E0,-2.3748658E0,-1.8010701E0,-9.491879E0,3.1036544E0,1.4947392E1,-2.3448658E0,-9.974933E0,-3.2038715E0,3.4761524E-1,-6.0373654E0,-1.2087478E1,-7.189102E0,3.6059082E1,1.5333033E1,1.0555427E1,2.0559082E1,1.7853408E0,3.3484184E1,1.7747055E1,2.1550728E1,6.144387E0,-1.9250481E0,7.0389953E0,1.9363512E0,1.5471924E1,-8.927286E0,-2.0707487E-1,-2.3867095E0,7.7303367E0,4.1640606E1,-7.806885E-1,7.2155106E1,4.192027E1,1.3193116E0,2.1328968E1,7.616602E0,-1.2030689E1],"split_indices":[0,0,0,6,5,5,5,0,0,3,6,0,6,0,3,3,3,5,5,1,0,6,6,1,5,0,0,3,1,3,1,0,0,5,2,2,0,1,5,2,5,6,5,1,0,1,5,5,0,3,1,3,3,3,5,0,6,3,0,0,3,0,0,0,0,0,0,0,0,0,0,0,0,0,0,0,0,0,0,0,0,0,0,0,0,0,0,0,0,0,0,0,0,0,0,0,0,0,0,0,0,0,0,0,0,0,0,0,0,0,0,0,0,0,0],"split_type":[0,0,0,0,0,0,0,0,0,0,0,0,0,0,0,0,0,0,0,0,0,0,0,0,0,0,0,0,0,0,0,0,0,0,0,0,0,0,0,0,0,0,0,0,0,0,0,0,0,0,0,0,0,0,0,0,0,0,0,0,0,0,0,0,0,0,0,0,0,0,0,0,0,0,0,0,0,0,0,0,0,0,0,0,0,0,0,0,0,0,0,0,0,0,0,0,0,0,0,0,0,0,0,0,0,0,0,0,0,0,0,0,0,0,0],"sum_hessian":[4.052E3,2.634E3,1.418E3,1.032E3,1.602E3,1.302E3,1.16E2,5.96E2,4.36E2,6.29E2,9.73E2,6.31E2,6.71E2,7.5E1,4.1E1,1.67E2,4.29E2,1.85E2,2.51E2,3.25E2,3.04E2,5.69E2,4.04E2,3.82E2,2.49E2,4.04E2,2.67E2,3.2E1,4.3E1,3.1E1,1E1,1.05E2,6.2E1,2.18E2,2.11E2,4.4E1,1.41E2,1.88E2,6.3E1,2.24E2,1.01E2,2.55E2,4.9E1,1.16E2,4.53E2,3.98E2,6E0,3.54E2,2.8E1,9.4E1,1.55E2,2.28E2,1.76E2,1.63E2,1.04E2,1E0,3.1E1,3.9E1,4E0,2E0,2.9E1,9E0,1E0,7.2E1,3.3E1,1.01E2,1.17E2,1.98E2,1.3E1,3.7E1,7E0,1.46E2,4.2E1,6.2E1,1E0,9E1,1.34E2,2.5E1,7.6E1,1.99E2,5.6E1,4.3E1,6E0,3.3E1,8.3E1,2.47E2,2.06E2,1.14E2,2.84E2,4E0,2E0,1.49E2,2.05E2,2E0,2.6E1,6.4E1,3E1,1.28E2,2.7E1,6.4E1,1.64E2,1.6E1,1.6E2,8E1,8.3E1,4E1,6.4E1,3E1,1E0,2.7E1,1.2E1,1E0,3E0,2.8E1,1E0],"tree_param":{"num_deleted":"0","num_feature":"7","num_nodes":"115","size_leaf_vector":"1"}},{"base_weights":[5.325418E-2,-1.346899E1,3.5520397E1,-2.9603966E1,-3.2639122E0,2.857564E1,8.859586E1,-3.5674366E1,-2.1006882E1,7.507313E0,-1.3359147E1,4.4089382E1,1.5902532E1,1.2054495E2,3.397398E1,-2.9513987E1,-4.4633457E1,-1.6726555E1,-3.305069E1,1.4910866E1,-2.0980966E0,-5.725248E0,-2.2718454E1,3.4502453E1,5.788191E1,2.5821104E1,-1.3737266E-1,9.043357E1,1.4381058E2,1.2848817E1,9.148607E1,-2.5140797E1,-3.5768223E1,-3.36003E1,-4.864809E1,-3.2431335E0,-1.9837652E1,-4.6265118E1,-2.9379868E1,2.8830004E1,3.546747E0,-9.812063E0,9.7954E0,-1.5935699E1,-7.9478496E-1,-4.000553E1,-1.9055483E1,4.5003048E1,2.8563156E1,7.4904884E1,4.1683163E1,-2.055444E1,2.959089E1,-4.0745396E1,4.1154957E0,-3.0860848E0,9.343377E1,1.5249475E2,4.557509E1,9.228539E0,2.1476822E1,9.8699394E1,7.3891526E-1,-1.1578594E1,-6.7855506E0,-1.2000573E1,-7.6708236E0,-1.0785568E1,1.9537076E0,-1.6423597E1,-1.35312605E1,-1.3759933E1,-3.6780283E-1,-6.5566545E0,-1.4399731E0,-1.4838857E1,-8.368543E0,-9.19602E0,2.558967E0,-6.757163E0,9.33491E0,8.153295E0,-1.2206799E-1,-8.03809E0,-2.3141246E0,9.861028E-1,6.198451E0,-3.600159E0,-1.2015458E1,-1.2171614E1,7.2263232E-3,-7.8948436E0,-1.5673111E1,-6.1487775E0,8.002722E0,1.0511618E1,1.6146667E1,9.954743E0,4.6715164E0,2.6461674E1,9.479412E0,1.1354009E1,6.0346684E1,-1.0646643E1,-1.5655916E0,1.0215956E1,1.456252E0,-3.798456E0,-1.6468058E1,-2.1299517E0,4.3828626E0,3.1942766E1,1.58782E1,5.7114754E1,3.4863976E1,1.919329E1,3.5942543E0,1.3790091E0,1.3540234E1,1.5378358E1,3.2644936E1],"categories":[],"categories_nodes":[],"categories_segments":[],"categories_sizes":[],"default_left":[0,0,0,0,0,0,0,0,0,0,0,0,0,0,0,0,0,0,0,0,0,0,0,0,0,0,0,0,0,0,0,0,0,0,0,0,0,0,0,0,0,0,0,0,0,0,0,0,0,0,0,0,0,0,0,0,0,0,0,0,0,0,0,0,0,0,0,0,0,0,0,0,0,0,0,0,0,0,0,0,0,0,0,0,0,0,0,0,0,0,0,0,0,0,0,0,0,0,0,0,0,0,0,0,0,0,0,0,0,0,0,0,0,0,0,0,0,0,0,0,0],"id":1,"left_children":[1,3,5,7,9,11,13,15,17,19,21,23,25,27,29,31,33,35,37,39,41,43,45,47,49,51,53,55,57,59,61,63,65,67,69,71,73,75,77,79,81,83,85,87,89,91,93,95,97,99,101,103,105,107,109,-1,111,113,115,117,-1,119,-1,-1,-1,-1,-1,-1,-1,-1,-1,-1,-1,-1,-1,-1,-1,-1,-1,-1,-1,-1,-1,-1,-1,-1,-1,-1,-1,-1,-1,-1,-1,-1,-1,-1,-1,-1,-1,-1,-1,-1,-1,-1,-1,-1,-1,-1,-1,-1,-1,-1,-1,-1,-1,-1,-1,-1,-1,-1,-1],"loss_changes":[1.9442785E6,4.8317662E5,4.099275E5,5.8588125E4,1.9572005E5,1.9413669E5,2.2102506E5,3.5384938E4,2.3830984E4,6.1971715E4,6.624511E4,5.6844438E4,8.702742E4,4.3740125E4,5.835718E4,9.959094E3,1.02805E4,1.46595E4,4.6071875E3,7.772168E4,3.495961E4,2.5812914E4,2.5642969E4,1.5241594E4,4.6788625E4,5.9699375E4,3.6434805E4,1.24440625E4,3.0586125E4,7.207651E3,8.104867E3,7.1699375E3,5.928922E3,7.3087734E3,1.7443125E3,5.7041934E3,8.543156E3,8.878516E1,5.041125E3,2.6649266E4,2.5423496E4,8.0244707E3,1.0540209E4,1.5367641E4,1.1303639E4,1.0687531E4,2.3338836E4,6.3745938E3,9.805297E3,4.7325844E4,5.050897E4,5.76959E3,3.4384438E4,7.2516484E3,2.2583326E4,0E0,1.3911219E4,3.2860062E4,2.3245898E3,5.779654E3,0E0,1.8114844E2,0E0,0E0,0E0,0E0,0E0,0E0,0E0,0E0,0E0,0E0,0E0,0E0,0E0,0E0,0E0,0E0,0E0,0E0,0E0,0E0,0E0,0E0,0E0,0E0,0E0,0E0,0E0,0E0,0E0,0E0,0E0,0E0,0E0,0E0,0E0,0E0,0E0,0E0,0E0,0E0,0E0,0E0,0E0,0E0,0E0,0E0,0E0,0E0,0E0,0E0,0E0,0E0,0E0,0E0,0E0,0E0,0E0,0E0,0E0],"parents":[2147483647,0,0,1,1,2,2,3,3,4,4,5,5,6,6,7,7,8,8,9,9,10,10,11,11,12,12,13,13,14,14,15,15,16,16,17,17,18,18,19,19,20,20,21,21,22,22,23,23,24,24,25,25,26,26,27,27,28,28,29,29,30,30,31,31,32,32,33,33,34,34,35,35,36,36,37,37,38,38,39,39,40,40,41,41,42,42,43,43,44,44,45,45,46,46,47,47,48,48,49,49,50,50,51,51,52,52,53,53,54,54,56,56,57,57,58,58,59,59,61,61],"right_children":[2,4,6,8,10,12,14,16,18,20,22,24,26,28,30,32,34,36,38,40,42,44,46,48,50,52,54,56,58,60,62,64,66,68,70,72,74,76,78,80,82,84,86,88,90,92,94,96,98,100,102,104,106,108,110,-1,112,114,116,118,-1,120,-1,-1,-1,-1,-1,-1,-1,-1,-1,-1,-1,-1,-1,-1,-1,-1,-1,-1,-1,-1,-1,-1,-1,-1,-1,-1,-1,-1,-1,-1,-1,-1,-1,-1,-1,-1,-1,-1,-1,-1,-1,-1,-1,-1,-1,-1,-1,-1,-1,-1,-1,-1,-1,-1,-1,-1,-1,-1,-1],"split_conditions":[1.43E2,6.7E1,2.42E2,4.9E1,1.5827721E1,1.4512064E1,1.457889E1,2.6053775E2,3.1001248E2,1.9555834E1,2.2771075E2,1.74E2,2.5522537E2,2.86E2,1.2362332E1,1.8089415E1,1.4081478E1,3.8E1,3.2144647E2,1.0829959E1,1.05E2,1.0048068E2,-1.76475E0,9.4E1,1.64E2,6.2333345E-2,-2.0439167E0,-2.1439164E0,3.69E2,7.7000003E0,3.69E2,2.6E1,2.5949835E1,1.92E2,2.9E1,-5.0626674E0,1.72E2,1.39E2,3.5132755E1,-4.516833E0,4.9E1,7E1,2.6095665E1,1.5E2,-3.6084998E0,9.9E1,2.28E2,1.58E2,2.0348755E2,1.8828999E1,3.69E2,1.63E2,2.4130743E1,2.266857E1,1.66E2,-3.0860848E0,2.02E2,2.8108332E-1,8.217153E0,3.508609E2,2.1476822E1,1.8671474E1,7.3891526E-1,-1.1578594E1,-6.7855506E0,-1.2000573E1,-7.6708236E0,-1.0785568E1,1.9537076E0,-1.6423597E1,-1.35312605E1,-1.3759933E1,-3.6780283E-1,-6.5566545E0,-1.4399731E0,-1.4838857E1,-8.368543E0,-9.19602E0,2.558967E0,-6.757163E0,9.33491E0,8.153295E0,-1.2206799E-1,-8.03809E0,-2.3141246E0,9.861028E-1,6.198451E0,-3.600159E0,-1.2015458E1,-1.2171614E1,7.2263232E-3,-7.8948436E0,-1.5673111E1,-6.1487775E0,8.002722E0,1.0511618E1,1.6146667E1,9.954743E0,4.6715164E0,2.6461674E1,9.479412E0,1.1354009E1,6.0346684E1,-1.0646643E1,-1.5655916E0,1.0215956E1,1.456252E0,-3.798456E0,-1.6468058E1,-2.1299517E0,4.3828626E0,3.1942766E1,1.58782E1,5.7114754E1,3.4863976E1,1.919329E1,3.5942543E0,1.3790091E0,1.3540234E1,1.5378358E1,3.2644936E1],"split_indices":[0,0,0,0,5,5,5,6,6,3,6,0,6,0,3,3,5,1,6,5,0,6,3,2,1,3,3,3,1,4,1,0,3,2,0,3,2,2,5,3,1,0,3,1,3,1,2,0,6,3,2,0,5,5,0,0,2,3,5,6,0,5,0,0,0,0,0,0,0,0,0,0,0,0,0,0,0,0,0,0,0,0,0,0,0,0,0,0,0,0,0,0,0,0,0,0,0,0,0,0,0,0,0,0,0,0,0,0,0,0,0,0,0,0,0,0,0,0,0,0,0],"split_type":[0,0,0,0,0,0,0,0,0,0,0,0,0,0,0,0,0,0,0,0,0,0,0,0,0,0,0,0,0,0,0,0,0,0,0,0,0,0,0,0,0,0,0,0,0,0,0,0,0,0,0,0,0,0,0,0,0,0,0,0,0,0,0,0,0,0,0,0,0,0,0,0,0,0,0,0,0,0,0,0,0,0,0,0,0,0,0,0,0,0,0,0,0,0,0,0,0,0,0,0,0,0,0,0,0,0,0,0,0,0,0,0,0,0,0,0,0,0,0,0,0],"sum_hessian":[4.052E3,2.934E3,1.118E3,1.136E3,1.798E3,9.9E2,1.28E2,6.64E2,4.72E2,8.7E2,9.28E2,4.44E2,5.46E2,8E1,4.8E1,3.96E2,2.68E2,3.5E2,1.22E2,4.91E2,3.79E2,5.12E2,4.16E2,2.64E2,1.8E2,3.37E2,2.09E2,3.7E1,4.3E1,3.6E1,1.2E1,2.36E2,1.6E2,7.4E1,1.94E2,6.6E1,2.84E2,2.4E1,9.8E1,2.2E2,2.71E2,2.3E2,1.49E2,1.66E2,3.46E2,7.1E1,3.45E2,9.3E1,1.71E2,8.6E1,9.4E1,2.5E1,3.12E2,1.9E1,1.9E2,1E0,3.6E1,3.9E1,4E0,3.5E1,1E0,1.1E1,1E0,3.5E1,2.01E2,1.11E2,4.9E1,7E1,4E0,6.6E1,1.28E2,2E0,6.4E1,2.5E2,3.4E1,1.9E1,5E0,9.5E1,3E0,9E0,2.11E2,3.8E1,2.33E2,2.4E1,2.06E2,9.4E1,5.5E1,1.44E2,2.2E1,6E0,3.4E2,3.5E1,3.6E1,3.35E2,1E1,4.6E1,4.7E1,1.25E2,4.6E1,6.5E1,2.1E1,9.3E1,1E0,1.2E1,1.3E1,2.64E2,4.8E1,7E0,1.2E1,9.2E1,9.8E1,2.6E1,1E1,1.7E1,2.2E1,2E0,2E0,3.2E1,3E0,3E0,8E0],"tree_param":{"num_deleted":"0","num_feature":"7","num_nodes":"121","size_leaf_vector":"1"}},{"base_weights":[8.7658376E-2,-1.3760654E1,1.8356606E1,-2.4615364E1,-8.955628E0,1.1925477E1,4.6908928E1,-2.1352985E1,-3.3317116E1,1.0390797E0,-1.3381635E1,2.036795E1,3.4069676E0,6.696817E1,2.416564E1,-2.7155687E1,-1.7666182E1,-2.6446007E1,-3.6900772E1,7.9595804E0,-8.06317E0,-8.484832E0,-1.9242905E1,2.8197582E1,1.5227367E1,-7.1007633E0,1.2554369E1,5.3861866E1,1.0327573E2,9.976447E0,3.785672E1,-4.04446E1,-2.4557392E1,-1.8175997E1,2.1668247E1,-2.8191267E1,6.4040427E0,-3.7387413E1,-1.3076389E1,2.038394E1,4.9689417E0,-1.6416584E1,8.49702E-1,-1.3861625E1,-2.3398015E0,-7.514598E0,-2.41913E1,2.3469456E1,5.4041325E1,9.093287E0,2.0457523E1,-7.858571E0,3.6560043E1,-4.038625E1,1.3509115E1,8.168301E1,4.5891247E1,1.0831213E2,-1.6592203E0,-2.9848045E1,1.4449194E1,4.468187E1,-2.836335E0,-1.38089285E1,-7.233835E0,-6.5698195E0,-1.0704998E1,-6.372246E0,-2.2796931E0,-6.017452E0,-1.0788898E1,-1.1428436E1,-5.2794385E0,2.7179604E0,-7.0425296E0,-1.6570889E0,8.375285E0,3.133731E0,-1.3976632E0,-8.140167E0,-3.9330595E0,-1.7211732E0,4.558642E0,-5.541186E0,-1.7732465E0,1.4835805E0,-2.4542139E0,2.899758E0,-5.153588E0,-8.238868E0,-3.4323552E0,-9.080698E0,7.420872E0,3.3794445E1,1.2447892E1,5.7712035E0,6.4309555E-1,7.1514325E0,-3.477633E0,-3.8002577E0,1.5478467E0,1.6280892E0,-1.793908E1,2.854567E0,8.970434E0,-1.2182548E1,2.638452E1,2.342155E1,9.928398E0,6.29497E0,3.4347515E1,-1.4983246E0,7.516754E-1,-1.1020477E1,-4.133231E0,-1.1102466E1,5.4555483E0,2.1156097E1,8.162013E0,-1.2073927E1,4.2316556E0],"categories":[],"categories_nodes":[],"categories_segments":[],"categories_sizes":[],"default_left":[0,0,0,0,0,0,0,0,0,0,0,0,0,0,0,0,0,0,0,0,0,0,0,0,0,0,0,0,0,0,0,0,0,0,0,0,0,0,0,0,0,0,0,0,0,0,0,0,0,0,0,0,0,0,0,0,0,0,0,0,0,0,0,0,0,0,0,0,0,0,0,0,0,0,0,0,0,0,0,0,0,0,0,0,0,0,0,0,0,0,0,0,0,0,0,0,0,0,0,0,0,0,0,0,0,0,0,0,0,0,0,0,0,0,0,0,0,0,0,0,0],"id":2,"left_children":[1,3,5,7,9,11,13,15,17,19,21,23,25,27,29,31,33,35,37,39,41,43,45,47,49,51,53,55,57,59,61,63,65,67,-1,69,-1,71,73,75,77,79,81,83,85,87,89,91,93,95,97,99,-1,101,103,105,107,109,111,113,115,117,119,-1,-1,-1,-1,-1,-1,-1,-1,-1,-1,-1,-1,-1,-1,-1,-1,-1,-1,-1,-1,-1,-1,-1,-1,-1,-1,-1,-1,-1,-1,-1,-1,-1,-1,-1,-1,-1,-1,-1,-1,-1,-1,-1,-1,-1,-1,-1,-1,-1,-1,-1,-1,-1,-1,-1,-1,-1,-1],"loss_changes":[1.0256377E6,1.20054E5,3.2041475E5,1.9359219E4,7.0792516E4,1.02628484E5,1.4482606E5,1.0580672E4,3.72725E3,3.1056307E4,3.1666688E4,2.8429062E4,6.852546E4,7.533325E4,2.9150656E4,5.877953E3,1.5932305E4,6.3571445E3,9.371406E2,1.0302607E4,1.5872422E4,1.999014E4,2.9068484E4,3.331217E4,1.3769727E4,3.340493E4,1.9803188E4,2.4413969E4,2.3433469E4,1.396877E4,2.1512414E4,1.7177852E3,4.216336E3,1.0147094E4,0E0,3.5135977E3,0E0,1.0094375E3,1.1334353E3,1.0693885E4,1.2018355E4,3.5421797E3,9.914641E3,1.1727227E4,1.2125066E4,2.523694E4,1.4452281E4,1.7154812E4,2.6948914E4,1.4199256E4,2.5629422E4,2.0787031E4,0E0,6.549374E3,2.4266422E4,2.4258922E4,3.9008203E4,2.0263188E4,5.4185238E1,3.7929688E2,1.3937778E4,2.7882422E4,8.1732515E3,0E0,0E0,0E0,0E0,0E0,0E0,0E0,0E0,0E0,0E0,0E0,0E0,0E0,0E0,0E0,0E0,0E0,0E0,0E0,0E0,0E0,0E0,0E0,0E0,0E0,0E0,0E0,0E0,0E0,0E0,0E0,0E0,0E0,0E0,0E0,0E0,0E0,0E0,0E0,0E0,0E0,0E0,0E0,0E0,0E0,0E0,0E0,0E0,0E0,0E0,0E0,0E0,0E0,0E0,0E0,0E0,0E0,0E0],"parents":[2147483647,0,0,1,1,2,2,3,3,4,4,5,5,6,6,7,7,8,8,9,9,10,10,11,11,12,12,13,13,14,14,15,15,16,16,17,17,18,18,19,19,20,20,21,21,22,22,23,23,24,24,25,25,26,26,27,27,28,28,29,29,30,30,31,31,32,32,33,33,35,35,37,37,38,38,39,39,40,40,41,41,42,42,43,43,44,44,45,45,46,46,47,47,48,48,49,49,50,50,51,51,53,53,54,54,55,55,56,56,57,57,58,58,59,59,60,60,61,61,62,62],"right_children":[2,4,6,8,10,12,14,16,18,20,22,24,26,28,30,32,34,36,38,40,42,44,46,48,50,52,54,56,58,60,62,64,66,68,-1,70,-1,72,74,76,78,80,82,84,86,88,90,92,94,96,98,100,-1,102,104,106,108,110,112,114,116,118,120,-1,-1,-1,-1,-1,-1,-1,-1,-1,-1,-1,-1,-1,-1,-1,-1,-1,-1,-1,-1,-1,-1,-1,-1,-1,-1,-1,-1,-1,-1,-1,-1,-1,-1,-1,-1,-1,-1,-1,-1,-1,-1,-1,-1,-1,-1,-1,-1,-1,-1,-1,-1,-1,-1,-1,-1,-1,-1],"split_conditions":[1.12E2,5.1E1,1.92E2,3.0748053E2,1.26462E1,1.5725037E1,1.457889E1,3.4E1,1.608761E1,1.9555834E1,2.2410019E2,1.0829959E1,1.5001918E1,2.86E2,7.5933347E0,7.6284065E1,3.058974E2,1.95E2,6E-1,8.766573E0,7.6E1,1.6489056E2,5.9E1,1.74E2,1.47E2,3.592927E2,4.890297E0,9.3E1,1.5999999E0,-2.6608334E0,1.92E2,1.23E2,2.786748E2,1.39E2,2.1668247E1,6.7269173E0,6.4040427E0,2.7118586E1,1.6101915E1,6.8E1,1.06E2,5.242635E1,9.1E1,8.9E1,1.825026E1,3.1182004E2,1.01E2,-4.2147503E0,1.77E2,1.01E2,1.9E2,1.66E2,3.6560043E1,1.8678995E1,1.66E2,-3.2420835E0,5.021412E1,-2.6608334E0,3.08E2,2.3688984E1,6.283929E0,1.6189038E2,1.99E2,-1.38089285E1,-7.233835E0,-6.5698195E0,-1.0704998E1,-6.372246E0,-2.2796931E0,-6.017452E0,-1.0788898E1,-1.1428436E1,-5.2794385E0,2.7179604E0,-7.0425296E0,-1.6570889E0,8.375285E0,3.133731E0,-1.3976632E0,-8.140167E0,-3.9330595E0,-1.7211732E0,4.558642E0,-5.541186E0,-1.7732465E0,1.4835805E0,-2.4542139E0,2.899758E0,-5.153588E0,-8.238868E0,-3.4323552E0,-9.080698E0,7.420872E0,3.3794445E1,1.2447892E1,5.7712035E0,6.4309555E-1,7.1514325E0,-3.477633E0,-3.8002577E0,1.5478467E0,1.6280892E0,-1.793908E1,2.854567E0,8.970434E0,-1.2182548E1,2.638452E1,2.342155E1,9.928398E0,6.29497E0,3.4347515E1,-1.4983246E0,7.516754E-1,-1.1020477E1,-4.133231E0,-1.1102466E1,5.4555483E0,2.1156097E1,8.162013E0,-1.2073927E1,4.2316556E0],"split_indices":[0,0,0,6,5,5,5,0,5,3,6,5,3,0,3,6,6,2,4,5,1,6,1,0,0,6,6,2,4,3,2,2,6,2,0,3,0,3,3,0,1,6,0,0,5,6,0,3,0,1,1,0,0,3,0,3,6,3,0,5,6,6,0,0,0,0,0,0,0,0,0,0,0,0,0,0,0,0,0,0,0,0,0,0,0,0,0,0,0,0,0,0,0,0,0,0,0,0,0,0,0,0,0,0,0,0,0,0,0,0,0,0,0,0,0,0,0,0,0,0,0],"split_type":[0,0,0,0,0,0,0,0,0,0,0,0,0,0,0,0,0,0,0,0,0,0,0,0,0,0,0,0,0,0,0,0,0,0,0,0,0,0,0,0,0,0,0,0,0,0,0,0,0,0,0,0,0,0,0,0,0,0,0,0,0,0,0,0,0,0,0,0,0,0,0,0,0,0,0,0,0,0,0,0,0,0,0,0,0,0,0,0,0,0,0,0,0,0,0,0,0,0,0,0,0,0,0,0,0,0,0,0,0,0,0,0,0,0,0,0,0,0,0,0,0],"sum_hessian":[4.052E3,2.305E3,1.747E3,7.06E2,1.599E3,1.427E3,3.2E2,5.16E2,1.9E2,4.91E2,1.108E3,7.16E2,7.11E2,1.69E2,1.51E2,1.98E2,3.18E2,6.8E1,1.22E2,2.79E2,2.12E2,6.05E2,5.03E2,2.82E2,4.34E2,3.31E2,3.8E2,1.26E2,4.3E1,7.5E1,7.6E1,3E1,1.68E2,3.17E2,1E0,6.6E1,2E0,1.19E2,3E0,5.3E1,2.26E2,1.09E2,1.03E2,3.22E2,2.83E2,1.5E2,3.53E2,2.4E2,4.2E1,2.01E2,2.33E2,3.3E2,1E0,6E0,3.74E2,2.6E1,1E2,4.1E1,2E0,7E0,6.8E1,6.5E1,1.1E1,2.1E1,9E0,1.38E2,3E1,2.45E2,7.2E1,3.4E1,3.2E1,1.14E2,5E0,1E0,2E0,1.2E1,4.1E1,1.44E2,8.2E1,2.4E1,8.5E1,7.1E1,3.2E1,2.03E2,1.19E2,1.26E2,1.57E2,5.4E1,9.6E1,2.8E2,7.3E1,5E0,2.35E2,6E0,3.6E1,8.1E1,1.2E2,2.11E2,2.2E1,2.41E2,8.9E1,2E0,4E0,3.02E2,7.2E1,1E0,2.5E1,2.7E1,7.3E1,3E0,3.8E1,1E0,1E0,4E0,3E0,4E0,6.4E1,2.5E1,4E1,3E0,8E0],"tree_param":{"num_deleted":"0","num_feature":"7","num_nodes":"121","size_leaf_vector":"1"}},{"base_weights":[8.4279396E-2,-8.295746E0,1.5345548E1,-1.5604047E1,-3.5274372E0,1.1906385E1,4.521834E1,-1.2123007E1,-2.03239E1,7.357547E-1,-1.0025225E1,2.1473694E1,7.18086E0,6.2505383E1,1.9538374E1,-2.8325787E1,-1.121576E1,-1.7870352E1,-2.7723911E1,1.317678E1,-6.330336E-1,-1.1115044E1,1.786503E1,2.0799114E1,4.6225517E1,1.1617567E1,-3.537429E0,7.0533966E1,2.7364576E1,8.217178E0,5.3708897E1,5.993406E0,-3.0899298E1,-1.8643867E1,-9.007464E0,-2.297588E1,-1.3960587E1,-1.0699476E1,-2.9178202E1,9.379461E-1,1.9675869E1,9.936768E0,-2.7431839E0,-6.635905E0,-1.7154362E1,7.294006E0,2.6829262E1,2.1894249E1,-3.9021545E1,2.6573646E0,1.7195791E1,1.4146688E0,-2.1480742E1,9.2698616E1,5.482614E1,-7.2732716E0,5.006805E1,1.6685021E0,4.5399826E1,6.3347805E1,1.1364941E1,3.8662584E0,-1.1692257E0,-6.5221176E0,-1.1747858E1,-6.254547E0,6.8273697E0,-4.578246E0,-1.7709743E0,-7.141626E0,-6.1634447E-2,-4.59614E0,3.6147819E0,-6.1444373E0,5.685689E0,-8.901137E0,2.7856076E0,-3.8576972E0,6.469907E0,3.3416672E0,8.523205E0,2.3109509E1,2.3888676E0,9.117555E-2,-2.7019577E0,-2.2814593E0,1.068498E1,-7.069029E0,-3.539394E0,4.9787545E0,-8.295428E0,6.021606E0,1.7731388E1,-2.7828035E0,-1.4217217E1,2.2645347E0,-5.8413563E0,-2.2078533E0,6.0396614E0,-1.9507704E-3,2.1316109E1,-7.4463778E0,1.3408588E1,1.5349048E1,3.202635E1,3.2157977E0,2.2515604E1,-7.419493E0,2.4444244E0,5.8781433E-1,1.8162348E1,-1.1624365E0,1.2706545E1,1.6822727E1,-2.798362E0,1.0873957E1,2.3258339E1,4.9434586E0,-5.962235E-1],"categories":[],"categories_nodes":[],"categories_segments":[],"categories_sizes":[],"default_left":[0,0,0,0,0,0,0,0,0,0,0,0,0,0,0,0,0,0,0,0,0,0,0,0,0,0,0,0,0,0,0,0,0,0,0,0,0,0,0,0,0,0,0,0,0,0,0,0,0,0,0,0,0,0,0,0,0,0,0,0,0,0,0,0,0,0,0,0,0,0,0,0,0,0,0,0,0,0,0,0,0,0,0,0,0,0,0,0,0,0,0,0,0,0,0,0,0,0,0,0,0,0,0,0,0,0,0,0,0,0,0,0,0,0,0,0,0,0,0],"id":3,"left_children":[1,3,5,7,9,11,13,15,17,19,21,23,25,27,29,31,33,35,37,39,41,43,45,47,-1,49,51,53,55,57,59,61,63,65,67,69,71,73,75,77,79,81,83,85,87,89,-1,91,93,95,97,99,101,103,105,107,109,111,113,115,117,-1,-1,-1,-1,-1,-1,-1,-1,-1,-1,-1,-1,-1,-1,-1,-1,-1,-1,-1,-1,-1,-1,-1,-1,-1,-1,-1,-1,-1,-1,-1,-1,-1,-1,-1,-1,-1,-1,-1,-1,-1,-1,-1,-1,-1,-1,-1,-1,-1,-1,-1,-1,-1,-1,-1,-1,-1,-1],"loss_changes":[5.1846478E5,9.1142766E4,1.4709522E5,1.6725812E4,4.3913953E4,5.8167438E4,6.448047E4,8.458156E3,7.4388594E3,1.6322249E4,1.9286848E4,3.490383E4,4.117523E4,2.2897375E4,2.3156584E4,2.9231367E3,9.132828E3,6.2864766E3,2.3369688E3,7.537967E3,1.9297799E4,1.6251984E4,1.7504271E4,2.8696797E4,0E0,3.054329E4,2.2600078E4,1.9636938E4,1.4519348E4,1.1368613E4,5.402301E3,2.5479376E2,1.3426426E3,1.2248973E4,8.431684E3,2.6773281E3,6.904949E3,3.2887012E3,2.1310312E3,9.954022E3,4.3068086E3,1.845754E4,1.3763053E4,1.4559256E4,8.544664E3,7.610151E3,0E0,2.71565E4,1.5519678E3,2.5689875E4,2.7331578E4,1.9794258E4,1.3267807E4,1.0884828E4,3.8447844E4,2.355369E3,5.4236914E3,9.411171E3,4.61295E3,1.8014375E3,3.0584485E2,0E0,0E0,0E0,0E0,0E0,0E0,0E0,0E0,0E0,0E0,0E0,0E0,0E0,0E0,0E0,0E0,0E0,0E0,0E0,0E0,0E0,0E0,0E0,0E0,0E0,0E0,0E0,0E0,0E0,0E0,0E0,0E0,0E0,0E0,0E0,0E0,0E0,0E0,0E0,0E0,0E0,0E0,0E0,0E0,0E0,0E0,0E0,0E0,0E0,0E0,0E0,0E0,0E0,0E0,0E0,0E0,0E0,0E0],"parents":[2147483647,0,0,1,1,2,2,3,3,4,4,5,5,6,6,7,7,8,8,9,9,10,10,11,11,12,12,13,13,14,14,15,15,16,16,17,17,18,18,19,19,20,20,21,21,22,22,23,23,25,25,26,26,27,27,28,28,29,29,30,30,31,31,32,32,33,33,34,34,35,35,36,36,37,37,38,38,39,39,40,40,41,41,42,42,43,43,44,44,45,45,47,47,48,48,49,49,50,50,51,51,52,52,53,53,54,54,55,55,56,56,57,57,58,58,59,59,60,60],"right_children":[2,4,6,8,10,12,14,16,18,20,22,24,26,28,30,32,34,36,38,40,42,44,46,48,-1,50,52,54,56,58,60,62,64,66,68,70,72,74,76,78,80,82,84,86,88,90,-1,92,94,96,98,100,102,104,106,108,110,112,114,116,118,-1,-1,-1,-1,-1,-1,-1,-1,-1,-1,-1,-1,-1,-1,-1,-1,-1,-1,-1,-1,-1,-1,-1,-1,-1,-1,-1,-1,-1,-1,-1,-1,-1,-1,-1,-1,-1,-1,-1,-1,-1,-1,-1,-1,-1,-1,-1,-1,-1,-1,-1,-1,-1,-1,-1,-1,-1,-1],"split_conditions":[1.27E2,6.3E1,2.34E2,2.4534409E2,1.8161278E1,1.2371645E1,1.457889E1,-4.8087497E0,2.3535301E1,4.2E1,1.95E2,3.69E2,2.9964972E2,2E-1,1.2362332E1,2.5E1,3.660718E1,3.8E1,2.853643E2,7.7E1,9.511088E0,2.7514484E2,3.5684836E2,3.08E2,4.6225517E1,1.08321175E2,1.63E2,1.1741444E2,1.6E2,6E-1,3.020673E2,3.4E1,3.8E1,1.99E2,3.8E1,1.93E2,2.19718E1,2.7381308E1,3.9601635E1,8.4E1,3.7E1,-3.771E0,2.217546E2,3.438895E1,3.2687796E2,2.42E2,2.6829262E1,2.13E2,8.557102E0,2.4130743E1,3.312084E0,1.59E2,3.5132755E1,3.8607662E1,1.6031664E2,1.1000001E0,2.51E2,3.5178693E2,2.42E2,1.8892282E1,3.69E2,3.8662584E0,-1.1692257E0,-6.5221176E0,-1.1747858E1,-6.254547E0,6.8273697E0,-4.578246E0,-1.7709743E0,-7.141626E0,-6.1634447E-2,-4.59614E0,3.6147819E0,-6.1444373E0,5.685689E0,-8.901137E0,2.7856076E0,-3.8576972E0,6.469907E0,3.3416672E0,8.523205E0,2.3109509E1,2.3888676E0,9.117555E-2,-2.7019577E0,-2.2814593E0,1.068498E1,-7.069029E0,-3.539394E0,4.9787545E0,-8.295428E0,6.021606E0,1.7731388E1,-2.7828035E0,-1.4217217E1,2.2645347E0,-5.8413563E0,-2.2078533E0,6.0396614E0,-1.9507704E-3,2.1316109E1,-7.4463778E0,1.3408588E1,1.5349048E1,3.202635E1,3.2157977E0,2.2515604E1,-7.419493E0,2.4444244E0,5.8781433E-1,1.8162348E1,-1.1624365E0,1.2706545E1,1.6822727E1,-2.798362E0,1.0873957E1,2.3258339E1,4.9434586E0,-5.962235E-1],"split_indices":[0,0,0,6,5,5,5,3,5,1,2,2,6,4,3,1,6,0,6,0,5,6,6,1,0,6,2,6,2,4,6,0,0,2,0,2,5,5,5,2,1,3,6,5,6,1,0,0,5,5,3,2,5,6,6,4,0,6,2,5,1,0,0,0,0,0,0,0,0,0,0,0,0,0,0,0,0,0,0,0,0,0,0,0,0,0,0,0,0,0,0,0,0,0,0,0,0,0,0,0,0,0,0,0,0,0,0,0,0,0,0,0,0,0,0,0,0,0,0],"split_type":[0,0,0,0,0,0,0,0,0,0,0,0,0,0,0,0,0,0,0,0,0,0,0,0,0,0,0,0,0,0,0,0,0,0,0,0,0,0,0,0,0,0,0,0,0,0,0,0,0,0,0,0,0,0,0,0,0,0,0,0,0,0,0,0,0,0,0,0,0,0,0,0,0,0,0,0,0,0,0,0,0,0,0,0,0,0,0,0,0,0,0,0,0,0,0,0,0,0,0,0,0,0,0,0,0,0,0,0,0,0,0,0,0,0,0,0,0,0,0],"sum_hessian":[4.052E3,2.616E3,1.436E3,1.032E3,1.584E3,1.289E3,1.47E2,5.96E2,4.36E2,9.57E2,6.27E2,4.25E2,8.64E2,8.7E1,6E1,3E1,5.66E2,3.3E2,1.06E2,9.4E1,8.63E2,6.04E2,2.3E1,4.24E2,1E0,6.11E2,2.53E2,7E1,1.7E1,4.6E1,1.4E1,2E0,2.8E1,1.28E2,4.38E2,1.41E2,1.89E2,9E0,9.7E1,3.3E1,6.1E1,1.43E2,7.2E2,3.48E2,2.56E2,2.1E1,2E0,4.17E2,7E0,2.35E2,3.76E2,1.99E2,5.4E1,2.7E1,4.3E1,7E0,1E1,4E1,6E0,1.1E1,3E0,1E0,1E0,1.5E1,1.3E1,1.22E2,6E0,1.44E2,2.94E2,1.36E2,5E0,1.8E2,9E0,7E0,2E0,9.6E1,1E0,2E1,1.3E1,3.2E1,2.9E1,3E0,1.4E2,4.85E2,2.35E2,3.41E2,7E0,1.15E2,1.41E2,1.7E1,4E0,3.99E2,1.8E1,2E0,5E0,1.93E2,4.2E1,4E1,3.36E2,1.96E2,3E0,5.2E1,2E0,8E0,1.9E1,1.4E1,2.9E1,3E0,4E0,2E0,8E0,3.6E1,4E0,5E0,1E0,5E0,6E0,2E0,1E0],"tree_param":{"num_deleted":"0","num_feature":"7","num_nodes":"119","size_leaf_vector":"1"}},{"base_weights":[1.2166537E-1,-4.6951833E0,1.4505782E1,-8.826491E0,5.5737257E-1,1.1398656E1,3.2672634E1,-6.322738E0,-1.2694639E1,4.7877803E0,-7.8857613E0,1.5809254E1,1.9991137E0,4.4741062E1,1.4726829E1,-1.4817004E1,-3.8607304E0,-1.0478185E1,-2.1192759E1,-2.8615995E1,5.665365E0,-8.307802E0,2.7051645E1,9.414619E0,2.1402584E1,1.0640581E0,3.9291687E1,3.6307446E1,7.782807E1,6.2960343E0,4.0161526E1,-8.149563E0,-2.0659294E1,-6.2670994E0,3.5734155E0,-1.1635031E1,6.2484055E0,-1.859239E1,-3.0235773E1,4.7974703E-1,-3.156978E1,1.1083393E1,8.566236E-1,-3.2147346E0,-1.5957955E1,1.5561174E1,-7.740222E0,1.8176945E1,3.3296635E1,5.947569E0,-2.1880259E1,5.0712116E1,1.3200102E1,9.992562E1,4.0477627E1,2.504629E1,-2.4175975E0,1.9968384E1,2.8014816E1,-8.396093E0,-1.1892372E0,-3.4766634E0,-7.283809E0,-5.6496483E-1,-2.890738E0,3.2375767E0,-3.58546E0,-2.3379693E0,-4.583932E0,-1.1526282E0,8.583997E0,-1.896223E0,-6.0136113E0,-1.7851067E-1,-9.381937E0,-1.2188998E1,-5.8918757E0,5.81036E0,6.471517E-1,-1.5344591E0,1.7300394E0,-4.4803777E0,1.3259749E-1,-7.8914857E0,-2.1139486E0,6.2406754E0,-4.027038E0,-3.1567662E0,1.30743685E1,6.9640555E0,3.9348662E0,1.7276913E0,1.16098385E1,1.0728606E0,1.1232327E1,5.7493873E0,-9.868797E0,1.946943E1,2.2423913E0,-6.530498E-1,1.8551577E1,3.2418785E1,4.0039034E0,1.8405107E1,-4.4281096E0,-2.0558743E0,1.2504355E1,-1.1691562E1,7.6106775E-1,9.5542055E-1,1.200953E1],"categories":[],"categories_nodes":[],"categories_segments":[],"categories_sizes":[],"default_left":[0,0,0,0,0,0,0,0,0,0,0,0,0,0,0,0,0,0,0,0,0,0,0,0,0,0,0,0,0,0,0,0,0,0,0,0,0,0,0,0,0,0,0,0,0,0,0,0,0,0,0,0,0,0,0,0,0,0,0,0,0,0,0,0,0,0,0,0,0,0,0,0,0,0,0,0,0,0,0,0,0,0,0,0,0,0,0,0,0,0,0,0,0,0,0,0,0,0,0,0,0,0,0,0,0,0,0,0,0,0,0],"id":4,"left_children":[1,3,5,7,9,11,13,15,17,19,21,23,25,27,29,31,33,35,37,39,41,43,-1,45,47,49,-1,51,53,55,57,59,61,63,65,67,69,71,73,-1,75,77,79,81,83,85,87,89,91,93,95,97,99,101,103,105,107,-1,109,-1,-1,-1,-1,-1,-1,-1,-1,-1,-1,-1,-1,-1,-1,-1,-1,-1,-1,-1,-1,-1,-1,-1,-1,-1,-1,-1,-1,-1,-1,-1,-1,-1,-1,-1,-1,-1,-1,-1,-1,-1,-1,-1,-1,-1,-1,-1,-1,-1,-1,-1,-1],"loss_changes":[2.8088472E5,6.590759E4,5.703386E4,1.6384047E4,4.78283E4,3.6036516E4,3.1394594E4,2.156679E4,1.2341352E4,2.6310797E4,1.9247963E4,2.0972734E4,3.3507227E4,2.1730047E4,1.2827659E4,8.868762E3,1.4387504E4,1.0347605E4,2.6594219E3,2.103213E3,2.2657395E4,1.7326084E4,0E0,2.943365E4,1.1480047E4,3.1279705E4,0E0,2.3296062E4,9.98625E3,7.739545E3,2.9453496E3,9.022169E3,3.7573984E3,8.946002E3,2.2206164E4,6.8400938E3,8.008496E3,1.8168203E3,8.730762E2,0E0,1.4719355E3,3.0203379E4,1.3575816E4,1.1534947E4,1.6227461E4,3.1420914E4,1.1025291E4,6.067711E3,9.596695E3,1.7043121E4,2.2785264E4,2.6503031E4,2.1824027E4,5.602711E3,1.0129295E4,8.245235E3,6.075425E3,0E0,3.4530918E3,0E0,0E0,0E0,0E0,0E0,0E0,0E0,0E0,0E0,0E0,0E0,0E0,0E0,0E0,0E0,0E0,0E0,0E0,0E0,0E0,0E0,0E0,0E0,0E0,0E0,0E0,0E0,0E0,0E0,0E0,0E0,0E0,0E0,0E0,0E0,0E0,0E0,0E0,0E0,0E0,0E0,0E0,0E0,0E0,0E0,0E0,0E0,0E0,0E0,0E0,0E0,0E0],"parents":[2147483647,0,0,1,1,2,2,3,3,4,4,5,5,6,6,7,7,8,8,9,9,10,10,11,11,12,12,13,13,14,14,15,15,16,16,17,17,18,18,19,19,20,20,21,21,23,23,24,24,25,25,27,27,28,28,29,29,30,30,31,31,32,32,33,33,34,34,35,35,36,36,37,37,38,38,40,40,41,41,42,42,43,43,44,44,45,45,46,46,47,47,48,48,49,49,50,50,51,51,52,52,53,53,54,54,55,55,56,56,58,58],"right_children":[2,4,6,8,10,12,14,16,18,20,22,24,26,28,30,32,34,36,38,40,42,44,-1,46,48,50,-1,52,54,56,58,60,62,64,66,68,70,72,74,-1,76,78,80,82,84,86,88,90,92,94,96,98,100,102,104,106,108,-1,110,-1,-1,-1,-1,-1,-1,-1,-1,-1,-1,-1,-1,-1,-1,-1,-1,-1,-1,-1,-1,-1,-1,-1,-1,-1,-1,-1,-1,-1,-1,-1,-1,-1,-1,-1,-1,-1,-1,-1,-1,-1,-1,-1,-1,-1,-1,-1,-1,-1,-1,-1,-1],"split_conditions":[1.48E2,8.7E1,2.34E2,2.4136223E2,1.27E2,2.2625894E2,1.457889E1,4.1077908E1,2.1772749E1,-4.8087497E0,3.592927E2,1.1223038E2,3.35E2,2.76E2,1.2362332E1,1.3331084E1,1.28E2,3.5385056E2,7.5E1,4.5E1,1.5937878E1,1.8374111E1,2.7051645E1,1.8439417E1,1.87E2,1.87E2,3.9291687E1,2.42E2,3.35E2,1.92E2,1.81E2,-3.2420835E0,6.1E1,2.006833E1,2.0348755E2,6E1,7.6E1,1.0587918E1,2E1,4.7974703E-1,2.9639243E2,1.4899833E1,7.7E1,1.03E2,1.4639416E1,2.289611E1,1.93E2,1.46E2,3.126667E0,1.81E2,1.48E2,1E-1,3.2395093E2,6E-1,3.35E2,1.62E2,1.97E2,1.9968384E1,1.8892282E1,-8.396093E0,-1.1892372E0,-3.4766634E0,-7.283809E0,-5.6496483E-1,-2.890738E0,3.2375767E0,-3.58546E0,-2.3379693E0,-4.583932E0,-1.1526282E0,8.583997E0,-1.896223E0,-6.0136113E0,-1.7851067E-1,-9.381937E0,-1.2188998E1,-5.8918757E0,5.81036E0,6.471517E-1,-1.5344591E0,1.7300394E0,-4.4803777E0,1.3259749E-1,-7.8914857E0,-2.1139486E0,6.2406754E0,-4.027038E0,-3.1567662E0,1.30743685E1,6.9640555E0,3.9348662E0,1.7276913E0,1.16098385E1,1.0728606E0,1.1232327E1,5.7493873E0,-9.868797E0,1.946943E1,2.2423913E0,-6.530498E-1,1.8551577E1,3.2418785E1,4.0039034E0,1.8405107E1,-4.4281096E0,-2.0558743E0,1.2504355E1,-1.1691562E1,7.6106775E-1,9.5542055E-1,1.200953E1],"split_indices":[0,0,0,6,1,6,5,6,3,3,6,6,1,2,3,3,2,6,0,1,5,5,0,3,0,1,0,1,1,1,1,3,2,3,6,1,0,5,2,0,6,3,2,0,3,5,1,1,3,1,2,4,6,4,0,1,1,0,5,0,0,0,0,0,0,0,0,0,0,0,0,0,0,0,0,0,0,0,0,0,0,0,0,0,0,0,0,0,0,0,0,0,0,0,0,0,0,0,0,0,0,0,0,0,0,0,0,0,0,0,0],"split_type":[0,0,0,0,0,0,0,0,0,0,0,0,0,0,0,0,0,0,0,0,0,0,0,0,0,0,0,0,0,0,0,0,0,0,0,0,0,0,0,0,0,0,0,0,0,0,0,0,0,0,0,0,0,0,0,0,0,0,0,0,0,0,0,0,0,0,0,0,0,0,0,0,0,0,0,0,0,0,0,0,0,0,0,0,0,0,0,0,0,0,0,0,0,0,0,0,0,0,0,0,0,0,0,0,0,0,0,0,0,0,0],"sum_hessian":[4.052E3,3.036E3,1.016E3,1.699E3,1.337E3,8.69E2,1.47E2,1.033E3,6.66E2,8.91E2,4.46E2,5.91E2,2.78E2,8.7E1,6E1,2.31E2,8.02E2,5.3E2,1.36E2,2.2E1,8.69E2,4.45E2,1E0,2.77E2,3.14E2,2.77E2,1E0,7.1E1,1.6E1,4.6E1,1.4E1,1.09E2,1.22E2,6.06E2,1.96E2,4.96E2,3.4E1,1.08E2,2.8E1,2E0,2E1,4.08E2,4.61E2,2.68E2,1.77E2,2.04E2,7.3E1,2.49E2,6.5E1,2.29E2,4.8E1,4.3E1,2.8E1,9E0,7E0,1.4E1,3.2E1,3E0,1.1E1,1.8E1,9.1E1,3.6E1,8.6E1,2.64E2,3.42E2,1.34E2,6.2E1,2.43E2,2.53E2,2.4E1,1E1,1.2E1,9.6E1,1E0,2.7E1,1E1,1E1,2.11E2,1.97E2,2.08E2,2.53E2,6.3E1,2.05E2,8.1E1,9.6E1,1.73E2,3.1E1,7E1,3E0,1.23E2,1.26E2,1.1E1,5.4E1,2.14E2,1.5E1,1E1,3.8E1,3.2E1,1.1E1,2.2E1,6E0,8E0,1E0,5E0,2E0,5E0,9E0,3E0,2.9E1,4E0,7E0],"tree_param":{"num_deleted":"0","num_feature":"7","num_nodes":"111","size_leaf_vector":"1"}},{"base_weights":[1.2635668E-1,-2.7095504E0,1.3104261E1,-5.527253E0,2.1865826E0,1.2451788E1,8.943447E1,-1.1576908E1,-4.1975384E0,7.5901623E0,-1.4959471E0,-2.8147772E1,1.3352978E1,3.900804E1,3.6631615E1,-1.8323505E1,-1.0047767E1,-1.9243866E1,-3.6836216E0,1.4113693E1,3.4879882E0,-2.8274488E0,2.1343418E1,-8.904177E0,-3.382029E1,1.2429633E1,5.5121326E1,3.4033175E0,1.2383768E1,-3.1794498E0,-2.0542124E1,-8.0561E0,-1.4128811E1,-2.0870302E1,1.0775491E1,-4.949639E0,2.264126E0,2.1017723E1,3.930756E0,-9.533195E0,6.0274825E0,-2.2003812E-1,-1.1522926E1,2.4621725E1,1.4201271E1,-3.931302E0,-1.7359543E0,-4.7563946E1,-1.7208544E1,1.6524723E1,1.7349697E0,1.1463767E1,8.2952614E1,3.6439266E0,-4.626331E0,-6.4111543E0,6.962395E-1,-1.8587856E0,-3.6502724E0,-4.625716E0,1.620009E0,-1.5459645E-1,-7.2756195E0,-8.835538E-1,-2.548417E0,2.8777633E0,-1.5841736E0,8.592598E0,3.1424887E0,-2.6222527E-1,7.2508082E0,-3.5915473E0,1.649395E1,-3.6540657E-1,3.407699E0,-3.4577098E-1,7.8797183E0,2.673361E0,-4.0714383E0,-3.3683264E0,6.832764E0,-3.4799196E-2,-7.4638027E-1,-2.6539216E0,-1.6061453E1,-8.50124E0,-5.3324604E-1,8.159888E0,3.8937566E0,2.2566836E0,-4.357863E0,-6.80281E0,1.2821288E1,2.8418547E1,-1.688157E0],"categories":[],"categories_nodes":[],"categories_segments":[],"categories_sizes":[],"default_left":[0,0,0,0,0,0,0,0,0,0,0,0,0,0,0,0,0,0,0,0,0,0,0,0,0,0,0,0,0,0,0,0,0,0,0,0,0,0,0,0,0,0,0,0,0,0,0,0,0,0,0,0,0,0,0,0,0,0,0,0,0,0,0,0,0,0,0,0,0,0,0,0,0,0,0,0,0,0,0,0,0,0,0,0,0,0,0,0,0,0,0,0,0,0,0],"id":5,"left_children":[1,3,5,7,9,11,13,15,17,19,21,23,25,-1,27,29,31,33,35,37,39,41,43,45,47,49,51,-1,-1,53,55,57,59,61,-1,63,65,67,69,71,73,75,77,-1,79,-1,81,83,85,87,89,91,93,-1,-1,-1,-1,-1,-1,-1,-1,-1,-1,-1,-1,-1,-1,-1,-1,-1,-1,-1,-1,-1,-1,-1,-1,-1,-1,-1,-1,-1,-1,-1,-1,-1,-1,-1,-1,-1,-1,-1,-1,-1,-1],"loss_changes":[1.4920266E5,4.5910863E4,3.509346E4,1.6941008E4,2.4208348E4,2.6792328E4,8.09725E3,3.7361602E3,1.3329635E4,1.3143777E4,2.2077658E4,1.4454121E3,2.6581453E4,0E0,1.8129883E0,2.2530098E3,2.4221426E3,5.863539E3,1.2638934E4,1.3275016E4,1.0109896E4,1.5528252E4,1.6183881E4,1.2778995E2,1.921168E3,3.0321695E4,1.7274738E4,0E0,0E0,2.063451E3,1.1859629E3,1.5459746E3,2.6281543E3,3.8423008E3,0E0,9.802551E3,1.6361425E4,8.783008E3,7.6060996E3,8.524379E3,9.86436E3,1.3071247E4,6.7348203E3,0E0,8.323346E3,0E0,3.3659306E0,9.1422363E2,1.1517476E3,1.8608938E4,1.8272203E4,8.442902E3,9.920996E3,0E0,0E0,0E0,0E0,0E0,0E0,0E0,0E0,0E0,0E0,0E0,0E0,0E0,0E0,0E0,0E0,0E0,0E0,0E0,0E0,0E0,0E0,0E0,0E0,0E0,0E0,0E0,0E0,0E0,0E0,0E0,0E0,0E0,0E0,0E0,0E0,0E0,0E0,0E0,0E0,0E0,0E0],"parents":[2147483647,0,0,1,1,2,2,3,3,4,4,5,5,6,6,7,7,8,8,9,9,10,10,11,11,12,12,14,14,15,15,16,16,17,17,18,18,19,19,20,20,21,21,22,22,23,23,24,24,25,25,26,26,29,29,30,30,31,31,32,32,33,33,35,35,36,36,37,37,38,38,39,39,40,40,41,41,42,42,44,44,46,46,47,47,48,48,49,49,50,50,51,51,52,52],"right_children":[2,4,6,8,10,12,14,16,18,20,22,24,26,-1,28,30,32,34,36,38,40,42,44,46,48,50,52,-1,-1,54,56,58,60,62,-1,64,66,68,70,72,74,76,78,-1,80,-1,82,84,86,88,90,92,94,-1,-1,-1,-1,-1,-1,-1,-1,-1,-1,-1,-1,-1,-1,-1,-1,-1,-1,-1,-1,-1,-1,-1,-1,-1,-1,-1,-1,-1,-1,-1,-1,-1,-1,-1,-1,-1,-1,-1,-1,-1,-1],"split_conditions":[1.62E2,1.03E2,3.69E2,3.8E1,1.01E2,-3.2420835E0,2.65E2,2.3E1,-5.0626674E0,1.3779114E1,2.28E2,1.5934726E2,3.69E2,3.900804E1,2.76E2,1.1212135E1,3.0099982E2,3.508609E2,1.49E2,1.4899833E1,-3.584999E-1,2.9639243E2,1.11E2,8.7E1,3.1717474E2,2.6299637E2,3.08E2,3.4033175E0,1.2383768E1,-1.43375E0,1.97E2,1.935375E1,3.5567456E2,5.242635E1,1.0775491E1,1.8584509E1,2.1114198E2,2.0033842E2,1.2605142E1,9.7E1,7E1,2.786748E2,6.2E1,2.4621725E1,-1.1566668E0,-3.931302E0,1.67E2,7.7E1,1.12E2,9.3E1,1.89E2,1.89E2,3.3036008E2,3.6439266E0,-4.626331E0,-6.4111543E0,6.962395E-1,-1.8587856E0,-3.6502724E0,-4.625716E0,1.620009E0,-1.5459645E-1,-7.2756195E0,-8.835538E-1,-2.548417E0,2.8777633E0,-1.5841736E0,8.592598E0,3.1424887E0,-2.6222527E-1,7.2508082E0,-3.5915473E0,1.649395E1,-3.6540657E-1,3.407699E0,-3.4577098E-1,7.8797183E0,2.673361E0,-4.0714383E0,-3.3683264E0,6.832764E0,-3.4799196E-2,-7.4638027E-1,-2.6539216E0,-1.6061453E1,-8.50124E0,-5.3324604E-1,8.159888E0,3.8937566E0,2.2566836E0,-4.357863E0,-6.80281E0,1.2821288E1,2.8418547E1,-1.688157E0],"split_indices":[0,0,2,0,1,3,0,0,3,5,2,6,0,0,0,5,6,6,2,3,3,6,1,2,6,6,1,0,0,3,2,3,6,6,0,5,6,6,5,1,2,6,2,0,3,0,0,1,1,2,1,2,6,0,0,0,0,0,0,0,0,0,0,0,0,0,0,0,0,0,0,0,0,0,0,0,0,0,0,0,0,0,0,0,0,0,0,0,0,0,0,0,0,0,0],"split_type":[0,0,0,0,0,0,0,0,0,0,0,0,0,0,0,0,0,0,0,0,0,0,0,0,0,0,0,0,0,0,0,0,0,0,0,0,0,0,0,0,0,0,0,0,0,0,0,0,0,0,0,0,0,0,0,0,0,0,0,0,0,0,0,0,0,0,0,0,0,0,0,0,0,0,0,0,0,0,0,0,0,0,0,0,0,0,0,0,0,0,0,0,0,0,0],"sum_hessian":[4.052E3,3.326E3,7.26E2,2.111E3,1.215E3,7.21E2,5E0,3.79E2,1.732E3,4.92E2,7.23E2,1.5E1,7.06E2,2E0,3E0,6.8E1,3.11E2,5.6E1,1.676E3,1.89E2,3.03E2,6.84E2,3.9E1,4E0,1.1E1,6.92E2,1.4E1,1E0,2E0,9E0,5.9E1,2.11E2,1E2,5.5E1,1E0,1.382E3,2.94E2,1.12E2,7.7E1,4.9E1,2.54E2,5.27E2,1.57E2,3E0,3.6E1,2E0,2E0,5E0,6E0,5E2,1.92E2,6E0,8E0,4E0,5E0,5.7E1,2E0,1.47E2,6.4E1,9.4E1,6E0,8E0,4.7E1,8.84E2,4.98E2,1.49E2,1.45E2,6.4E1,4.8E1,6.3E1,1.4E1,4.8E1,1E0,1.08E2,1.46E2,5.1E2,1.7E1,1.4E1,1.43E2,9E0,2.7E1,1E0,1E0,1E0,4E0,3E0,3E0,1.23E2,3.77E2,1.42E2,5E1,3E0,3E0,7E0,1E0],"tree_param":{"num_deleted":"0","num_feature":"7","num_nodes":"95","size_leaf_vector":"1"}},{"base_weights":[1.18037626E-1,-1.7947847E0,1.0026044E1,-5.591921E0,3.2929972E-1,8.746635E0,3.950758E1,-2.423519E0,-6.8550444E0,2.495414E0,-3.344666E0,1.0749703E1,-1.1193103E1,6.102046E1,-3.1663613E0,1.4375968E0,-9.710891E0,-2.6830719E1,-6.5447545E0,-3.4891884E1,2.8232262E0,-9.773121E-1,-8.603655E0,2.2991615E1,7.0694275E0,-1.6478586E1,4.8128742E1,9.2946205E1,1.8767357E1,4.424874E1,-2.9808369E1,-8.231957E0,4.541375E0,-1.3161614E1,-1.10123605E-1,-9.195686E0,-3.3646767E1,-1.0784957E1,-5.138715E0,3.5363618E-1,-3.82782E1,-1.870954E1,3.190986E0,5.473944E-1,-1.0674426E1,-9.410149E0,4.354989E1,1.4392452E1,4.3128277E1,4.91972E0,2.0165703E1,-2.8193972E1,1.3107576E1,3.9731805E0,1.606169E1,4.438788E1,3.5376133E1,-1.994545E1,5.3726692E1,1.5760606E1,2.9083376E0,-3.3117366E0,-1.2337657E1,-7.4258804E0,-1.3625126E0,4.9638047E0,4.8432928E-1,-4.2282887E0,5.4819927E0,-3.2691975E0,2.2339272E0,-3.5207193E0,-1.077124E0,-1.1447659E1,-3.5708895E0,-2.6285648E0,-6.8500934E0,-4.017526E0,-1.0545514E0,-3.3691385E0,-1.1957979E1,-7.4322057E0,7.806439E-1,1.0746263E0,-4.379863E0,-3.1525353E-1,2.7831416E0,-4.8071833E0,1.2297777E0,-9.212625E0,-2.252675E0,-3.6183507E0,1.9832188E1,1.8642906E1,2.768384E0,-4.665436E0,1.4016139E1,2.2146664E0,-2.2881665E0,2.0834139E1,4.38732E0,-1.5397223E1,-4.396475E0,5.900801E0,-3.4485118E0,1.7287926E1,4.9060154E0,-6.7620773E0,-1.4349335E0,-1.8235154E0,2.1059267E1],"categories":[],"categories_nodes":[],"categories_segments":[],"categories_sizes":[],"default_left":[0,0,0,0,0,0,0,0,0,0,0,0,0,0,0,0,0,0,0,0,0,0,0,0,0,0,0,0,0,0,0,0,0,0,0,0,0,0,0,0,0,0,0,0,0,0,0,0,0,0,0,0,0,0,0,0,0,0,0,0,0,0,0,0,0,0,0,0,0,0,0,0,0,0,0,0,0,0,0,0,0,0,0,0,0,0,0,0,0,0,0,0,0,0,0,0,0,0,0,0,0,0,0,0,0,0,0,0,0,0,0],"id":6,"left_children":[1,3,5,7,9,11,13,15,17,19,21,23,25,27,29,31,33,35,37,39,41,43,45,47,49,51,53,55,57,59,61,63,65,67,69,71,73,75,77,-1,79,81,83,85,87,89,91,93,95,97,99,101,103,-1,-1,105,-1,107,109,-1,-1,-1,-1,-1,-1,-1,-1,-1,-1,-1,-1,-1,-1,-1,-1,-1,-1,-1,-1,-1,-1,-1,-1,-1,-1,-1,-1,-1,-1,-1,-1,-1,-1,-1,-1,-1,-1,-1,-1,-1,-1,-1,-1,-1,-1,-1,-1,-1,-1,-1,-1],"loss_changes":[7.6831484E4,2.7408197E4,2.4398062E4,4.8619297E3,1.735729E4,2.5282941E4,2.498027E4,9.833907E3,5.2230664E3,1.691375E4,1.0063549E4,2.565318E4,1.8978684E4,2.2536953E4,1.3951317E4,6.9101675E3,4.0072324E3,1.2532109E3,5.0658438E3,1.5108809E3,1.0837306E4,8.270799E3,1.0967254E4,2.2236188E4,1.2344484E4,1.9086672E4,2.3460547E2,6.8928438E3,1.3251968E4,6.360493E2,1.0329111E3,3.3017048E3,6.0871104E3,2.866916E3,2.7711077E3,2.9052124E1,4.287871E2,4.9918926E3,8.622189E3,0E0,2.2958008E1,3.0370835E3,9.368932E3,6.762624E3,6.072125E3,9.811818E3,5.815096E3,2.2607709E4,8.947336E3,1.1828005E4,1.5915545E4,1.146108E4,2.8090828E3,0E0,0E0,9.13292E2,0E0,8.8904175E1,5.3518936E3,0E0,0E0,0E0,0E0,0E0,0E0,0E0,0E0,0E0,0E0,0E0,0E0,0E0,0E0,0E0,0E0,0E0,0E0,0E0,0E0,0E0,0E0,0E0,0E0,0E0,0E0,0E0,0E0,0E0,0E0,0E0,0E0,0E0,0E0,0E0,0E0,0E0,0E0,0E0,0E0,0E0,0E0,0E0,0E0,0E0,0E0,0E0,0E0,0E0,0E0,0E0,0E0],"parents":[2147483647,0,0,1,1,2,2,3,3,4,4,5,5,6,6,7,7,8,8,9,9,10,10,11,11,12,12,13,13,14,14,15,15,16,16,17,17,18,18,19,19,20,20,21,21,22,22,23,23,24,24,25,25,26,26,27,27,28,28,29,29,30,30,31,31,32,32,33,33,34,34,35,35,36,36,37,37,38,38,40,40,41,41,42,42,43,43,44,44,45,45,46,46,47,47,48,48,49,49,50,50,51,51,52,52,55,55,57,57,58,58],"right_children":[2,4,6,8,10,12,14,16,18,20,22,24,26,28,30,32,34,36,38,40,42,44,46,48,50,52,54,56,58,60,62,64,66,68,70,72,74,76,78,-1,80,82,84,86,88,90,92,94,96,98,100,102,104,-1,-1,106,-1,108,110,-1,-1,-1,-1,-1,-1,-1,-1,-1,-1,-1,-1,-1,-1,-1,-1,-1,-1,-1,-1,-1,-1,-1,-1,-1,-1,-1,-1,-1,-1,-1,-1,-1,-1,-1,-1,-1,-1,-1,-1,-1,-1,-1,-1,-1,-1,-1,-1,-1,-1,-1,-1],"split_conditions":[1.66E2,7E1,2.86E2,1.2522619E1,2.217546E2,2.02E2,2.8108332E-1,1.8989416E1,3.2615976E0,-5.731416E0,1.32E2,1.0829959E1,2.2143583E1,3.69E2,3.08E2,4.8E1,1.2E0,3.5E1,1.5277749E1,3.8E1,2.436579E0,2.4264418E1,3.592927E2,2.18E2,1.79E2,2.86E2,1.83E2,1.21675354E2,-1.0085E0,3.08E2,1.92E2,4.1077908E1,9.028754E0,1.2371645E1,5.2E1,3.7E1,6.2E1,6.3E1,-2.0439167E0,3.5363618E-1,7.6E1,1.48E2,2.69E1,1E-1,2.3936617E1,7.8E1,8.6E1,8.3E1,5.5E1,1.9E2,1.1966953E1,1.224E1,1.1608166E1,3.9731805E0,1.606169E1,9.346143E0,3.5376133E1,2.8789053E2,1.449669E2,1.5760606E1,2.9083376E0,-3.3117366E0,-1.2337657E1,-7.4258804E0,-1.3625126E0,4.9638047E0,4.8432928E-1,-4.2282887E0,5.4819927E0,-3.2691975E0,2.2339272E0,-3.5207193E0,-1.077124E0,-1.1447659E1,-3.5708895E0,-2.6285648E0,-6.8500934E0,-4.017526E0,-1.0545514E0,-3.3691385E0,-1.1957979E1,-7.4322057E0,7.806439E-1,1.0746263E0,-4.379863E0,-3.1525353E-1,2.7831416E0,-4.8071833E0,1.2297777E0,-9.212625E0,-2.252675E0,-3.6183507E0,1.9832188E1,1.8642906E1,2.768384E0,-4.665436E0,1.4016139E1,2.2146664E0,-2.2881665E0,2.0834139E1,4.38732E0,-1.5397223E1,-4.396475E0,5.900801E0,-3.4485118E0,1.7287926E1,4.9060154E0,-6.7620773E0,-1.4349335E0,-1.8235154E0,2.1059267E1],"split_indices":[0,0,2,5,6,2,3,3,6,3,1,5,3,1,2,2,4,0,5,1,6,3,6,0,2,0,1,6,3,1,0,6,5,5,0,1,0,0,3,0,1,0,4,4,5,2,0,1,2,1,5,5,3,0,0,5,0,6,6,0,0,0,0,0,0,0,0,0,0,0,0,0,0,0,0,0,0,0,0,0,0,0,0,0,0,0,0,0,0,0,0,0,0,0,0,0,0,0,0,0,0,0,0,0,0,0,0,0,0,0,0],"split_type":[0,0,0,0,0,0,0,0,0,0,0,0,0,0,0,0,0,0,0,0,0,0,0,0,0,0,0,0,0,0,0,0,0,0,0,0,0,0,0,0,0,0,0,0,0,0,0,0,0,0,0,0,0,0,0,0,0,0,0,0,0,0,0,0,0,0,0,0,0,0,0,0,0,0,0,0,0,0,0,0,0,0,0,0,0,0,0,0,0,0,0,0,0,0,0,0,0,0,0,0,0,0,0,0,0,0,0,0,0,0,0],"sum_hessian":[4.052E3,3.397E3,6.55E2,1.218E3,2.179E3,6.29E2,2.6E1,3.48E2,8.7E2,1.371E3,8.08E2,5.72E2,5.7E1,1.7E1,9E0,2.28E2,1.2E2,1.2E1,8.58E2,1.1E1,1.36E3,5.58E2,2.5E2,1.31E2,4.41E2,5.3E1,4E0,9E0,8E0,3E0,6E0,5.5E1,1.73E2,8.8E1,3.2E1,4E0,8E0,2.12E2,6.46E2,1E0,1E1,2.2E1,1.338E3,4.83E2,7.5E1,2.47E2,3E0,9.3E1,3.8E1,3.8E2,6.1E1,3.8E1,1.5E1,1E0,3E0,4E0,5E0,4E0,4E0,2E0,1E0,3E0,3E0,9E0,4.6E1,3.3E1,1.4E2,8.6E1,2E0,1.3E1,1.9E1,2E0,2E0,6E0,2E0,1.83E2,2.9E1,1.05E2,5.41E2,1E0,9E0,1.7E1,5E0,1.31E3,2.8E1,4.09E2,7.4E1,5.5E1,2E1,1.9E1,2.28E2,1E0,2E0,8E0,8.5E1,2E0,3.6E1,3.18E2,6.2E1,5E0,5.6E1,1.3E1,2.5E1,1.2E1,3E0,2E0,2E0,3E0,1E0,1E0,3E0],"tree_param":{"num_deleted":"0","num_feature":"7","num_nodes":"111","size_leaf_vector":"1"}},{"base_weights":[1.0030517E-1,-8.721017E-1,1.1408388E1,-2.9598322E0,1.8468617E0,1.4153223E1,-4.8945446E0,-2.5294077E0,-1.1416928E1,8.396702E0,2.6186082E-1,-2.0333298E1,1.5396501E1,-1.890082E1,7.14517E0,-7.9729376E0,-1.81157E0,-6.7321925E0,-2.3557583E1,1.9744707E1,3.5755842E0,1.3851565E0,-6.8245225E0,-2.535574E1,3.7303026E0,1.3978845E1,4.423866E1,-2.0230936E-1,-3.4466053E1,2.3397062E1,-4.4745793E0,-1.0955191E1,-4.569583E0,-3.494068E-1,-4.4754014E0,-1.0045807E1,1.1501435E1,1.7961629E-1,-2.5390429E1,-2.4786386E1,2.306258E1,6.6578207E0,-1.0268926E1,6.8324514E-2,1.0537584E1,-3.349441E1,-2.677716E0,-2.9021065E1,5.9502757E-1,1.6740313E1,-9.960238E0,5.8193237E1,-1.7022833E1,-6.0026846E0,8.6702175E0,-5.2130173E1,-1.4401656E1,4.55712E1,-2.6800478E1,-2.5436445E1,7.3659453E0,-6.228463E0,-2.8555107E0,-1.7320387E-1,-3.6671064E0,7.898724E-1,-1.3140004E0,3.7918937E-1,-2.121086E0,-2.1611896E0,-7.983654E0,6.271223E0,-1.7529236E0,-9.1104245E-1,9.9186975E-1,-1.09648E1,-6.064587E0,-8.251062E0,-1.272519E0,9.526112E0,3.3986304E0,1.4386927E-1,3.6755612E0,-1.1138273E0,-6.0842676E0,-6.445665E0,1.2680577E-1,5.5662165E0,-3.1628904E-1,-1.4078301E1,-1.767439E0,-4.438471E0,1.8419998E0,-3.447636E0,-9.884608E0,2.942554E0,7.2845006E0,-1.4308659E1,2.3518255E-1,7.3775277E0,2.072423E1,4.4122677E0,-1.2072542E1,-6.4139853E0,4.095171E0,-1.693872E1,-4.5703516E0,1.8265516E-1,-7.743525E0,1.6958973E1,2.539017E0,4.7817996E-1,-1.1038979E1,-1.0451906E1,-1.3259919E0,-7.811749E-1,4.8324447E0],"categories":[],"categories_nodes":[],"categories_segments":[],"categories_sizes":[],"default_left":[0,0,0,0,0,0,0,0,0,0,0,0,0,0,0,0,0,0,0,0,0,0,0,0,0,0,0,0,0,0,0,0,0,0,0,0,0,0,0,0,0,0,0,0,0,0,0,0,0,0,0,0,0,0,0,0,0,0,0,0,0,0,0,0,0,0,0,0,0,0,0,0,0,0,0,0,0,0,0,0,0,0,0,0,0,0,0,0,0,0,0,0,0,0,0,0,0,0,0,0,0,0,0,0,0,0,0,0,0,0,0,0,0,0,0,0,0],"id":7,"left_children":[1,3,5,7,9,11,13,15,17,19,21,23,25,27,29,31,33,35,37,39,41,43,45,47,-1,49,51,53,55,57,59,61,63,65,67,69,71,73,75,77,79,81,83,85,87,89,91,93,-1,95,97,99,101,103,-1,105,107,109,111,113,115,-1,-1,-1,-1,-1,-1,-1,-1,-1,-1,-1,-1,-1,-1,-1,-1,-1,-1,-1,-1,-1,-1,-1,-1,-1,-1,-1,-1,-1,-1,-1,-1,-1,-1,-1,-1,-1,-1,-1,-1,-1,-1,-1,-1,-1,-1,-1,-1,-1,-1,-1,-1,-1,-1,-1,-1],"loss_changes":[4.4576977E4,2.1195703E4,1.4433652E4,7.6590977E3,1.68366E4,1.2104055E4,8.0607324E3,7.8436826E3,5.6427324E3,1.7217781E4,1.041331E4,1.9610171E3,1.0257871E4,6.396054E3,5.0146074E3,2.324961E3,6.9236685E3,4.646982E3,1.2227471E3,1.4460004E4,9.584237E3,1.3606225E4,1.9706793E4,9.594238E2,0E0,1.7024031E4,1.1249158E4,2.0303756E3,3.5022764E3,1.3465289E4,4.158555E3,1.549543E3,3.3847693E3,1.3823088E4,9.391521E3,2.8213442E3,2.079155E3,4.020997E1,7.626172E2,2.7409863E2,8.614512E3,6.318874E3,2.6159473E3,7.555287E3,1.3215046E4,8.622666E3,1.6758803E4,1.7212695E2,0E0,1.1732844E4,1.0984128E4,1.9595547E3,2.8020999E3,3.3139812E3,0E0,9.886719E1,1.2146144E3,2.774793E3,1.1939866E3,1.0317476E3,1.0006884E3,0E0,0E0,0E0,0E0,0E0,0E0,0E0,0E0,0E0,0E0,0E0,0E0,0E0,0E0,0E0,0E0,0E0,0E0,0E0,0E0,0E0,0E0,0E0,0E0,0E0,0E0,0E0,0E0,0E0,0E0,0E0,0E0,0E0,0E0,0E0,0E0,0E0,0E0,0E0,0E0,0E0,0E0,0E0,0E0,0E0,0E0,0E0,0E0,0E0,0E0,0E0,0E0,0E0,0E0,0E0,0E0],"parents":[2147483647,0,0,1,1,2,2,3,3,4,4,5,5,6,6,7,7,8,8,9,9,10,10,11,11,12,12,13,13,14,14,15,15,16,16,17,17,18,18,19,19,20,20,21,21,22,22,23,23,25,25,26,26,27,27,28,28,29,29,30,30,31,31,32,32,33,33,34,34,35,35,36,36,37,37,38,38,39,39,40,40,41,41,42,42,43,43,44,44,45,45,46,46,47,47,49,49,50,50,51,51,52,52,53,53,55,55,56,56,57,57,58,58,59,59,60,60],"right_children":[2,4,6,8,10,12,14,16,18,20,22,24,26,28,30,32,34,36,38,40,42,44,46,48,-1,50,52,54,56,58,60,62,64,66,68,70,72,74,76,78,80,82,84,86,88,90,92,94,-1,96,98,100,102,104,-1,106,108,110,112,114,116,-1,-1,-1,-1,-1,-1,-1,-1,-1,-1,-1,-1,-1,-1,-1,-1,-1,-1,-1,-1,-1,-1,-1,-1,-1,-1,-1,-1,-1,-1,-1,-1,-1,-1,-1,-1,-1,-1,-1,-1,-1,-1,-1,-1,-1,-1,-1,-1,-1,-1,-1,-1,-1,-1,-1,-1],"split_conditions":[1.92E2,1.03E2,3.3669998E2,9.2E0,1.0829959E1,-2.6608334E0,1.45E2,3.2E1,1.5594106E2,3.126667E0,1.73E2,5.45E2,3.69E2,1.05E2,2.13E2,5.7E1,9.3E1,1.4068372E2,2.5E1,-4.2147503E0,1.74E2,1.57E2,5.839267E1,2.3688984E1,3.7303026E0,2.86E2,5.4602494E0,5E-1,1.6418526E1,3.5385056E2,2.51E2,1.3931349E2,1.46E2,2.006833E1,1.2964998E1,2.5570139E1,2.6279001E1,1.8E1,1.8053795E2,1.0185519E1,9.3669195E0,1.44E2,1.6331083E1,-5.0626674E0,1.8312082E1,2.02E2,8.949835E0,-4.516833E0,5.9502757E-1,2.18E2,2.42E2,9.346143E0,1.68E2,1.7E2,8.6702175E0,3.08E2,1.7498335E0,1.83E2,1.93E2,8.532917E0,3.4949707E2,-6.228463E0,-2.8555107E0,-1.7320387E-1,-3.6671064E0,7.898724E-1,-1.3140004E0,3.7918937E-1,-2.121086E0,-2.1611896E0,-7.983654E0,6.271223E0,-1.7529236E0,-9.1104245E-1,9.9186975E-1,-1.09648E1,-6.064587E0,-8.251062E0,-1.272519E0,9.526112E0,3.3986304E0,1.4386927E-1,3.6755612E0,-1.1138273E0,-6.0842676E0,-6.445665E0,1.2680577E-1,5.5662165E0,-3.1628904E-1,-1.4078301E1,-1.767439E0,-4.438471E0,1.8419998E0,-3.447636E0,-9.884608E0,2.942554E0,7.2845006E0,-1.4308659E1,2.3518255E-1,7.3775277E0,2.072423E1,4.4122677E0,-1.2072542E1,-6.4139853E0,4.095171E0,-1.693872E1,-4.5703516E0,1.8265516E-1,-7.743525E0,1.6958973E1,2.539017E0,4.7817996E-1,-1.1038979E1,-1.0451906E1,-1.3259919E0,-7.811749E-1,4.8324447E0],"split_indices":[0,0,6,4,5,3,2,0,6,3,1,0,0,2,0,1,1,6,1,3,2,2,6,5,0,1,3,4,5,6,0,6,2,3,5,5,3,0,6,5,5,0,3,3,3,1,3,3,0,0,0,5,1,1,0,0,3,1,0,3,6,0,0,0,0,0,0,0,0,0,0,0,0,0,0,0,0,0,0,0,0,0,0,0,0,0,0,0,0,0,0,0,0,0,0,0,0,0,0,0,0,0,0,0,0,0,0,0,0,0,0,0,0,0,0,0,0],"split_type":[0,0,0,0,0,0,0,0,0,0,0,0,0,0,0,0,0,0,0,0,0,0,0,0,0,0,0,0,0,0,0,0,0,0,0,0,0,0,0,0,0,0,0,0,0,0,0,0,0,0,0,0,0,0,0,0,0,0,0,0,0,0,0,0,0,0,0,0,0,0,0,0,0,0,0,0,0,0,0,0,0,0,0,0,0,0,0,0,0,0,0,0,0,0,0,0,0,0,0,0,0,0,0,0,0,0,0,0,0,0,0,0,0,0,0,0,0],"sum_hessian":[4.052E3,3.732E3,3.2E2,2.111E3,1.621E3,2.74E2,4.6E1,2.01E3,1.01E2,3.15E2,1.306E3,9E0,2.65E2,2.1E1,2.5E1,2.33E2,1.777E3,7.4E1,2.7E1,9.3E1,2.22E2,1.128E3,1.78E2,8E0,1E0,2.54E2,1.1E1,1E1,1.1E1,1E1,1.5E1,1.23E2,1.1E2,1.148E3,6.29E2,6.3E1,1.1E1,2E0,2.5E1,6E0,8.7E1,1.82E2,4E1,9.87E2,1.41E2,2.3E1,1.55E2,7E0,1E0,2.28E2,2.6E1,9E0,2E0,9E0,1E0,5E0,6E0,7E0,3E0,5E0,1E1,1.4E1,1.09E2,7.3E1,3.7E1,6.6E2,4.88E2,1.96E2,4.33E2,5.5E1,8E0,7E0,4E0,1E0,1E0,6E0,1.9E1,5E0,1E0,4.9E1,3.8E1,8.7E1,9.5E1,2.5E1,1.5E1,1.5E1,9.72E2,8.3E1,5.8E1,1.5E1,8E0,6.5E1,9E1,2E0,5E0,1.2E2,1.08E2,5E0,2.1E1,3E0,6E0,1E0,1E0,5E0,4E0,4E0,1E0,3E0,3E0,5E0,2E0,1E0,2E0,3E0,2E0,5E0,5E0],"tree_param":{"num_deleted":"0","num_feature":"7","num_nodes":"117","size_leaf_vector":"1"}},{"base_weights":[5.265313E-2,-1.3168344E0,4.142212E0,-1.0185522E1,-1.0020218E0,3.831868E0,4.8372982E1,-1.1609657E1,2.832026E1,-1.8032631E-1,-3.8947704E0,-1.5229366E1,4.2910156E0,6.9601425E1,1.5051292E1,-4.1570377E-1,-1.4198309E1,1.172991E1,-6.027088E-1,-1.4898764E1,4.8503894E-2,-7.6348457E0,9.51341E-2,8.960412E0,-2.2066698E1,1.9028984E1,3.665294E0,4.8807178E0,2.458676E1,1.064241E0,5.3110228E0,4.1234584E0,-1.4857882E1,-1.5434345E1,1.3762989E1,4.9386888E0,-2.0034508E1,-2.0040812E-1,1.2260709E1,-9.82828E0,8.092765E-1,-6.131311E-1,3.667298E1,8.660596E0,-8.210871E0,-2.8185076E1,-7.5516124E0,-2.0525501E1,2.2790848E1,2.962741E0,1.7712967E1,3.696826E0,-1.0868897E0,-7.7916145E0,3.6267358E-1,-4.853319E0,6.3824573E0,1.8210983E-1,5.383789E0,-2.270515E0,8.4919815E0,-7.903206E0,-1.1361943E0,2.1274054E-1,-1.0299278E0,9.505591E0,1.5133083E0,-2.0539634E0,-8.102389E0,-1.054412E0,7.2963204E0,2.600088E-1,-4.3361225E0,1.939153E1,-3.8515816E0,-3.6877282E0,6.0506976E-1,-9.271238E0,-2.646061E0,2.044818E0,-3.3246706E0,-3.67202E-1,-7.9653993E0,-8.542161E0,7.501743E0,1.0788896E0,-6.7888274E0,8.772014E0,5.52636E-1],"categories":[],"categories_nodes":[],"categories_segments":[],"categories_sizes":[],"default_left":[0,0,0,0,0,0,0,0,0,0,0,0,0,0,0,0,0,0,0,0,0,0,0,0,0,0,0,0,0,0,0,0,0,0,0,0,0,0,0,0,0,0,0,0,0,0,0,0,0,0,0,0,0,0,0,0,0,0,0,0,0,0,0,0,0,0,0,0,0,0,0,0,0,0,0,0,0,0,0,0,0,0,0,0,0,0,0,0,0],"id":8,"left_children":[1,3,5,7,9,11,13,15,17,19,21,23,25,27,29,31,33,-1,-1,35,37,39,41,43,45,47,49,-1,-1,-1,-1,51,53,55,57,59,61,63,65,67,69,71,73,-1,75,77,79,81,83,85,87,-1,-1,-1,-1,-1,-1,-1,-1,-1,-1,-1,-1,-1,-1,-1,-1,-1,-1,-1,-1,-1,-1,-1,-1,-1,-1,-1,-1,-1,-1,-1,-1,-1,-1,-1,-1,-1,-1],"loss_changes":[2.2704686E4,8.469023E3,1.377474E4,6.031879E3,6.973293E3,8.913538E3,3.9039824E3,2.9207998E3,1.386283E3,7.7000234E3,9.685457E3,4.1671724E3,9.041455E3,1.3022207E3,5.9235657E1,1.3723737E3,3.0464414E3,0E0,0E0,3.6647466E3,6.848007E3,6.212703E3,8.1831323E3,2.288137E3,1.4745234E3,6.4197383E3,9.313428E3,0E0,0E0,0E0,0E0,1.0608883E3,9.2424304E2,2.5000137E3,2.0923041E2,2.5523486E3,2.7705586E3,6.494543E3,6.148026E3,1.3441012E4,7.2020024E3,6.3618574E3,9.137549E3,0E0,1.9177347E2,4.1192188E2,4.3062485E2,4.3273096E2,4.913336E3,1.4755148E4,8.1786387E3,0E0,0E0,0E0,0E0,0E0,0E0,0E0,0E0,0E0,0E0,0E0,0E0,0E0,0E0,0E0,0E0,0E0,0E0,0E0,0E0,0E0,0E0,0E0,0E0,0E0,0E0,0E0,0E0,0E0,0E0,0E0,0E0,0E0,0E0,0E0,0E0,0E0,0E0],"parents":[2147483647,0,0,1,1,2,2,3,3,4,4,5,5,6,6,7,7,8,8,9,9,10,10,11,11,12,12,13,13,14,14,15,15,16,16,19,19,20,20,21,21,22,22,23,23,24,24,25,25,26,26,31,31,32,32,33,33,34,34,35,35,36,36,37,37,38,38,39,39,40,40,41,41,42,42,44,44,45,45,46,46,47,47,48,48,49,49,50,50],"right_children":[2,4,6,8,10,12,14,16,18,20,22,24,26,28,30,32,34,-1,-1,36,38,40,42,44,46,48,50,-1,-1,-1,-1,52,54,56,58,60,62,64,66,68,70,72,74,-1,76,78,80,82,84,86,88,-1,-1,-1,-1,-1,-1,-1,-1,-1,-1,-1,-1,-1,-1,-1,-1,-1,-1,-1,-1,-1,-1,-1,-1,-1,-1,-1,-1,-1,-1,-1,-1,-1,-1,-1,-1,-1,-1],"split_conditions":[1.48E2,-5.0626674E0,3.69E2,3.5477307E2,3.1001248E2,-3.2420835E0,2.65E2,4.1E1,7.8E1,2.436579E0,3.382901E2,3.660718E1,4.1E1,1.6E2,2.76E2,3.382901E2,4E-1,1.172991E1,-6.027088E-1,4.7E1,2.51E2,1.52E2,2.06E2,1.56E2,1.84E2,1.8E1,3.08E2,4.8807178E0,2.458676E1,1.064241E0,5.3110228E0,4.5E1,1.964228E1,1.77E2,3.8E1,3.5E1,1.41E2,1.28E2,1.0950645E2,1.31E2,3.1104082E1,2.8999999E0,2.18E2,8.660596E0,1.63E2,2.02E2,1.54E2,1.52E2,3.8E1,2.86E2,1.26462E1,3.696826E0,-1.0868897E0,-7.7916145E0,3.6267358E-1,-4.853319E0,6.3824573E0,1.8210983E-1,5.383789E0,-2.270515E0,8.4919815E0,-7.903206E0,-1.1361943E0,2.1274054E-1,-1.0299278E0,9.505591E0,1.5133083E0,-2.0539634E0,-8.102389E0,-1.054412E0,7.2963204E0,2.600088E-1,-4.3361225E0,1.939153E1,-3.8515816E0,-3.6877282E0,6.0506976E-1,-9.271238E0,-2.646061E0,2.044818E0,-3.3246706E0,-3.67202E-1,-7.9653993E0,-8.542161E0,7.501743E0,1.0788896E0,-6.7888274E0,8.772014E0,5.52636E-1],"split_indices":[0,3,2,6,6,3,0,2,0,6,6,6,2,0,0,6,4,0,0,0,2,2,1,0,1,2,0,0,0,0,0,1,5,1,1,0,2,1,6,1,5,4,1,0,0,0,2,0,1,1,5,0,0,0,0,0,0,0,0,0,0,0,0,0,0,0,0,0,0,0,0,0,0,0,0,0,0,0,0,0,0,0,0,0,0,0,0,0,0],"split_type":[0,0,0,0,0,0,0,0,0,0,0,0,0,0,0,0,0,0,0,0,0,0,0,0,0,0,0,0,0,0,0,0,0,0,0,0,0,0,0,0,0,0,0,0,0,0,0,0,0,0,0,0,0,0,0,0,0,0,0,0,0,0,0,0,0,0,0,0,0,0,0,0,0,0,0,0,0,0,0,0,0,0,0,0,0,0,0,0,0],"sum_hessian":[4.052E3,3.036E3,1.016E3,1.03E2,2.933E3,1.01E3,6E0,1E2,3E0,2.285E3,6.48E2,2.3E1,9.87E2,3E0,3E0,1.9E1,8.1E1,2E0,1E0,3.4E1,2.251E3,3.34E2,3.14E2,5E0,1.8E1,3.9E1,9.48E2,1E0,2E0,1E0,2E0,1.5E1,4E0,7.8E1,3E0,7E0,2.7E1,2.207E3,4.4E1,2.65E2,6.9E1,3.09E2,5E0,2E0,3E0,1.2E1,6E0,3E0,3.6E1,9.04E2,4.4E1,7E0,8E0,2E0,2E0,7.7E1,1E0,1E0,2E0,5E0,2E0,1.9E1,8E0,1.723E3,4.84E2,1.1E1,3.3E1,2.27E2,3.8E1,5.9E1,1E1,2.8E2,2.9E1,3E0,2E0,2E0,1E0,1E1,2E0,1E0,5E0,1E0,2E0,1E0,3.5E1,8.83E2,2.1E1,2.5E1,1.9E1],"tree_param":{"num_deleted":"0","num_feature":"7","num_nodes":"89","size_leaf_vector":"1"}},{"base_weights":[4.939286E-2,-5.361299E-1,6.4452224E0,-7.0505655E-1,1.674213E1,8.540301E0,-5.594352E0,-3.9557972E0,5.6036906E-3,3.685307E1,2.2691183E0,7.7873964E0,4.9898415E1,-2.36999E1,-6.003182E-1,-3.2811368E0,-1.1317405E1,2.4119534E-1,-1.0879555E1,2.3183155E1,2.5141504E1,1.2212932E1,-7.0351367E0,-1.399902E1,9.044944E0,2.1565296E1,-5.7067776E0,6.5896416E0,-3.5882183E1,-5.7067404E0,1.08371105E1,-9.004695E0,-2.635682E0,-1.4914887E1,6.3627577E0,-3.0492449E0,1.0061222E0,-1.2130415E1,1.0188704E1,1.024912E1,1.4916738E1,1.9513376E0,2.4136578E1,-1.1043825E1,8.672204E0,-3.0251259E1,2.0028622E0,-1.2548358E1,1.0093855E1,3.7574236E0,-1.6823503E0,-2.5115602E0,-4.3656975E1,-1.8805046E0,-2.9150589E1,1.9957859E1,6.5250397E-1,6.8193567E-1,-3.3001018E0,-9.4678354E-1,1.446712E0,-6.432962E-1,-5.6601686E0,3.3197012E0,-5.3945184E0,3.582767E-1,-3.0586476E0,1.0065029E0,-3.5160738E-1,-1.8444812E0,-6.8998475E0,8.94904E0,4.8752978E-1,-2.565895E0,2.359099E0,8.840801E0,4.2083132E-1,9.204659E-1,-4.4866095E0,7.903559E-1,3.1121361E0,-1.520556E0,-9.937417E0,3.5957754E0,-4.041731E0,3.012314E0,-1.5209886E1,1.3769043E1,2.5414982E0,-1.6650724E1,-3.9932206E0,1.6377935E0,-5.723252E0,2.4461976E-1,-1.1823317E1,1.5177754E0,-4.2762465E0],"categories":[],"categories_nodes":[],"categories_segments":[],"categories_sizes":[],"default_left":[0,0,0,0,0,0,0,0,0,0,0,0,0,0,0,0,0,0,0,0,0,0,0,0,0,0,0,0,0,0,0,0,0,0,0,0,0,0,0,0,0,0,0,0,0,0,0,0,0,0,0,0,0,0,0,0,0,0,0,0,0,0,0,0,0,0,0,0,0,0,0,0,0,0,0,0,0,0,0,0,0,0,0,0,0,0,0,0,0,0,0,0,0,0,0,0,0],"id":9,"left_children":[1,3,5,7,9,11,13,15,17,19,21,23,25,27,29,31,33,35,37,39,-1,41,43,45,47,-1,-1,49,51,53,55,57,59,61,63,65,67,69,-1,71,-1,73,75,77,79,81,83,85,87,-1,-1,-1,89,91,93,-1,95,-1,-1,-1,-1,-1,-1,-1,-1,-1,-1,-1,-1,-1,-1,-1,-1,-1,-1,-1,-1,-1,-1,-1,-1,-1,-1,-1,-1,-1,-1,-1,-1,-1,-1,-1,-1,-1,-1,-1,-1],"loss_changes":[1.518155E4,1.0852075E4,8.62389E3,8.499145E3,1.0394745E4,8.641654E3,4.597178E3,3.2408125E3,7.74727E3,7.6845703E3,2.1213547E3,7.962289E3,8.943878E3,4.295404E3,2.4564226E3,2.2150107E3,3.593124E3,7.4456777E3,4.0018008E3,3.952772E3,0E0,1.2988129E3,8.5136444E2,4.221652E3,6.264662E3,0E0,0E0,3.598098E2,1.3456064E3,2.5465315E3,7.32982E3,1.3979014E3,2.1337803E3,2.28133E3,1.3438798E3,1.6933586E4,1.2282863E4,3.954877E3,0E0,1.6401938E3,0E0,5.0199252E2,5.648308E2,5.978844E2,3.490921E0,4.109995E2,1.5518964E3,1.171266E4,1.465373E4,0E0,0E0,0E0,1.4180088E3,3.3859434E3,1.2619951E3,0E0,8.60394E2,0E0,0E0,0E0,0E0,0E0,0E0,0E0,0E0,0E0,0E0,0E0,0E0,0E0,0E0,0E0,0E0,0E0,0E0,0E0,0E0,0E0,0E0,0E0,0E0,0E0,0E0,0E0,0E0,0E0,0E0,0E0,0E0,0E0,0E0,0E0,0E0,0E0,0E0,0E0,0E0],"parents":[2147483647,0,0,1,1,2,2,3,3,4,4,5,5,6,6,7,7,8,8,9,9,10,10,11,11,12,12,13,13,14,14,15,15,16,16,17,17,18,18,19,19,21,21,22,22,23,23,24,24,27,27,28,28,29,29,30,30,31,31,32,32,33,33,34,34,35,35,36,36,37,37,39,39,41,41,42,42,43,43,44,44,45,45,46,46,47,47,48,48,52,52,53,53,54,54,56,56],"right_children":[2,4,6,8,10,12,14,16,18,20,22,24,26,28,30,32,34,36,38,40,-1,42,44,46,48,-1,-1,50,52,54,56,58,60,62,64,66,68,70,-1,72,-1,74,76,78,80,82,84,86,88,-1,-1,-1,90,92,94,-1,96,-1,-1,-1,-1,-1,-1,-1,-1,-1,-1,-1,-1,-1,-1,-1,-1,-1,-1,-1,-1,-1,-1,-1,-1,-1,-1,-1,-1,-1,-1,-1,-1,-1,-1,-1,-1,-1,-1,-1,-1],"split_conditions":[1.9E2,3.08E2,3.3935138E2,4.9E1,-1.4391641E-1,3.3517062E2,1.503835E1,4.7E1,2.18E2,1.6E2,1.14862E1,-2.0439167E0,1.2851916E1,7.968939E0,1.74E2,2.2E1,1.48E2,6.005881E1,3.1104082E1,-1.3543334E0,2.5141504E1,1.27895485E2,3.136028E2,2.86E2,6.283929E0,2.1565296E1,-5.7067776E0,3.08E2,8.3E1,1.66E2,1.95E2,-1.43375E0,1.1000001E0,1.1525623E1,2.0421871E1,1.935375E1,2.0930145E2,2.6053775E2,1.0188704E1,7.2433014E1,1.4916738E1,1.5373334E0,2.1998327E0,1.2269167E0,3E1,3.9E1,2.86E2,1.99E2,1.212706E1,3.7574236E0,-1.6823503E0,-2.5115602E0,1.3708391E1,2.6299719E1,1.93E2,1.9957859E1,2.8082308E1,6.8193567E-1,-3.3001018E0,-9.4678354E-1,1.446712E0,-6.432962E-1,-5.6601686E0,3.3197012E0,-5.3945184E0,3.582767E-1,-3.0586476E0,1.0065029E0,-3.5160738E-1,-1.8444812E0,-6.8998475E0,8.94904E0,4.8752978E-1,-2.565895E0,2.359099E0,8.840801E0,4.2083132E-1,9.204659E-1,-4.4866095E0,7.903559E-1,3.1121361E0,-1.520556E0,-9.937417E0,3.5957754E0,-4.041731E0,3.012314E0,-1.5209886E1,1.3769043E1,2.5414982E0,-1.6650724E1,-3.9932206E0,1.6377935E0,-5.723252E0,2.4461976E-1,-1.1823317E1,1.5177754E0,-4.2762465E0],"split_indices":[0,2,6,0,3,6,5,0,1,0,5,3,3,5,2,0,2,6,5,3,0,6,6,0,6,0,0,0,2,2,0,3,4,5,5,3,6,6,0,6,0,3,3,3,0,1,1,1,6,0,0,0,5,5,0,0,5,0,0,0,0,0,0,0,0,0,0,0,0,0,0,0,0,0,0,0,0,0,0,0,0,0,0,0,0,0,0,0,0,0,0,0,0,0,0,0,0],"split_type":[0,0,0,0,0,0,0,0,0,0,0,0,0,0,0,0,0,0,0,0,0,0,0,0,0,0,0,0,0,0,0,0,0,0,0,0,0,0,0,0,0,0,0,0,0,0,0,0,0,0,0,0,0,0,0,0,0,0,0,0,0,0,0,0,0,0,0,0,0,0,0,0,0,0,0,0,0,0,0,0,0,0,0,0,0,0,0,0,0,0,0,0,0,0,0,0,0],"sum_hessian":[4.052E3,3.713E3,3.39E2,3.678E3,3.5E1,2.89E2,5E1,6.59E2,3.019E3,1.4E1,2.1E1,2.85E2,4E0,1E1,4E1,6.05E2,5.4E1,2.956E3,6.3E1,1.2E1,2E0,1E1,1.1E1,1.5E1,2.7E2,3E0,1E0,3E0,7E0,2.8E1,1.2E1,6E1,5.45E2,4.5E1,9E0,5.57E2,2.399E3,6.2E1,1E0,9E0,3E0,6E0,4E0,9E0,2E0,7E0,8E0,1.2E1,2.58E2,2E0,1E0,2E0,5E0,2.5E1,3E0,1E0,1.1E1,9E0,5.1E1,5.1E2,3.5E1,1.1E1,3.4E1,8E0,1E0,3.5E2,2.07E2,1.154E3,1.245E3,4.1E1,2.1E1,2E0,7E0,2E0,4E0,3E0,1E0,2E0,7E0,1E0,1E0,1E0,6E0,5E0,3E0,8E0,4E0,1E1,2.48E2,3E0,2E0,1.8E1,7E0,1E0,2E0,9E0,2E0],"tree_param":{"num_deleted":"0","num_feature":"7","num_nodes":"97","size_leaf_vector":"1"}},{"base_weights":[4.353496E-2,-2.48808E-1,7.758724E0,3.1031675E0,-7.8979313E-1,3.6865332E0,2.6724907E1,8.378807E0,5.2894086E-1,-3.9700892E0,2.9895195E-1,1.4769405E1,-2.6731603E0,6.4671875E1,1.6885828E1,2.1651397E0,1.6883375E1,-1.6273422E1,1.4958525E0,-1.1471328E0,-6.803557E0,3.828844E0,-1.2186294E0,4.9974464E1,1.0115876E1,4.4655147E0,-1.7396826E1,5.592366E0,2.145577E1,1.5638727E0,3.2065613E1,-3.350742E0,1.1833533E1,1.1991464E0,2.5181147E1,-4.503901E0,-1.0009415E1,-2.864765E0,6.0528765E0,-2.1099129E0,1.3337056E1,-9.917668E0,9.110189E-1,1.4336582E0,8.680793E0,-2.2650385E0,4.885415E0,1.8277523E1,9.258019E-1,-2.4017591E1,1.6653545E1,8.550142E0,-2.418129E1,-4.0663795E0,-3.83189E1,2.0352463E1,-2.0616795E1,4.1577644E1,-2.1477036E0,4.026725E0,-3.0809252E0,2.3499329E1,1.7890081E0,1.5845615E0,-1.5742757E1,8.491443E0,-5.110871E0,-7.426382E0,6.9743075E0,-4.1436166E-1,-8.295134E0,3.328669E0,-4.4677567E-1,3.9765266E-1,-1.7559627E0,1.0544924E1,2.0345733E0,-3.2771885E0,4.057665E0,-6.6171937E0,1.3553907E0,1.406541E0,-9.529207E-1,3.3539906E-1,3.820618E0,2.555318E-1,-1.2253883E0,1.0172714E1,9.2211854E-1,-1.1637402E1,-9.718346E-1,-2.0012093E0,7.4951663E0,-4.4442973E0,4.7690167E0,-9.425056E0,2.884813E0,-3.0777035E0,3.8543217E0,1.2936585E0,-1.3060447E1,1.4709202E1,2.2202952E0,-1.0440175E1,-1.4474264E0,1.5420431E1,1.4388748E0],"categories":[],"categories_nodes":[],"categories_segments":[],"categories_sizes":[],"default_left":[0,0,0,0,0,0,0,0,0,0,0,0,0,0,0,0,0,0,0,0,0,0,0,0,0,0,0,0,0,0,0,0,0,0,0,0,0,0,0,0,0,0,0,0,0,0,0,0,0,0,0,0,0,0,0,0,0,0,0,0,0,0,0,0,0,0,0,0,0,0,0,0,0,0,0,0,0,0,0,0,0,0,0,0,0,0,0,0,0,0,0,0,0,0,0,0,0,0,0,0,0,0,0,0,0,0,0],"id":10,"left_children":[1,3,5,7,9,11,13,15,17,19,21,23,25,27,29,31,33,35,37,39,41,43,45,47,49,51,53,-1,-1,55,57,59,61,63,65,67,-1,69,71,73,75,77,79,81,83,85,87,-1,-1,89,91,93,95,97,99,101,103,105,-1,-1,-1,-1,-1,-1,-1,-1,-1,-1,-1,-1,-1,-1,-1,-1,-1,-1,-1,-1,-1,-1,-1,-1,-1,-1,-1,-1,-1,-1,-1,-1,-1,-1,-1,-1,-1,-1,-1,-1,-1,-1,-1,-1,-1,-1,-1,-1,-1],"loss_changes":[9.1433955E3,7.0854697E3,1.1332099E4,7.369884E3,1.1649144E4,8.708972E3,8.615406E3,9.369777E3,5.970525E3,6.855128E3,1.3434409E4,6.866715E3,8.381176E3,2.4273633E2,5.0667026E3,5.5859414E3,9.730613E3,3.8728564E3,6.9127285E3,6.0384736E3,1.0291326E4,8.750028E3,1.1214438E4,2.3792715E3,9.549264E3,6.525376E3,7.0955957E3,0E0,0E0,5.420524E3,4.4018174E3,7.913438E3,1.4366266E4,6.1939575E3,6.9439746E3,7.881348E3,0E0,6.5070522E3,6.4820645E3,5.215978E3,3.6222217E3,7.3429395E3,1.0372512E4,7.607361E3,7.621123E3,8.499109E3,1.3409276E4,0E0,0E0,2.0231345E3,6.967121E3,8.474646E3,2.013905E3,1.9124346E3,2.411334E3,2.2371016E3,1.1760417E3,3.00546E3,0E0,0E0,0E0,0E0,0E0,0E0,0E0,0E0,0E0,0E0,0E0,0E0,0E0,0E0,0E0,0E0,0E0,0E0,0E0,0E0,0E0,0E0,0E0,0E0,0E0,0E0,0E0,0E0,0E0,0E0,0E0,0E0,0E0,0E0,0E0,0E0,0E0,0E0,0E0,0E0,0E0,0E0,0E0,0E0,0E0,0E0,0E0,0E0,0E0],"parents":[2147483647,0,0,1,1,2,2,3,3,4,4,5,5,6,6,7,7,8,8,9,9,10,10,11,11,12,12,13,13,14,14,15,15,16,16,17,17,18,18,19,19,20,20,21,21,22,22,23,23,24,24,25,25,26,26,29,29,30,30,31,31,32,32,33,33,34,34,35,35,37,37,38,38,39,39,40,40,41,41,42,42,43,43,44,44,45,45,46,46,49,49,50,50,51,51,52,52,53,53,54,54,55,55,56,56,57,57],"right_children":[2,4,6,8,10,12,14,16,18,20,22,24,26,28,30,32,34,36,38,40,42,44,46,48,50,52,54,-1,-1,56,58,60,62,64,66,68,-1,70,72,74,76,78,80,82,84,86,88,-1,-1,90,92,94,96,98,100,102,104,106,-1,-1,-1,-1,-1,-1,-1,-1,-1,-1,-1,-1,-1,-1,-1,-1,-1,-1,-1,-1,-1,-1,-1,-1,-1,-1,-1,-1,-1,-1,-1,-1,-1,-1,-1,-1,-1,-1,-1,-1,-1,-1,-1,-1,-1,-1,-1,-1,-1],"split_conditions":[2.34E2,1.0163227E1,1.5135249E1,3.126667E0,1.21675354E2,-2.5641662E-1,7.423273E1,1.12E2,4.5456657E0,1E2,2.0288235E2,2.42E2,2.65E2,2.51E2,1.78E2,1.03E2,-1.8543334E0,9.7E1,9E0,9.5E1,1.57E2,1.32E2,1E-1,1.89E2,1.07E2,3.4612057E2,6.058167E0,5.592366E0,2.145577E1,2.02E2,2.7785254E1,3.6E1,1.07E2,1.99E2,1.1000001E0,9.227524E0,-1.0009415E1,1.99E2,1.5786842E2,1.9916498E1,6.2E1,2.7666502E1,6.283929E0,8.5E1,1.5001918E1,1.6641972E1,3.4774995E-1,1.8277523E1,9.258019E-1,2.86E2,-2.0439167E0,3.0666351E1,2.28E2,3.69E2,3.1749659E1,7.8E1,1.7143335E1,3.020673E2,-2.1477036E0,4.026725E0,-3.0809252E0,2.3499329E1,1.7890081E0,1.5845615E0,-1.5742757E1,8.491443E0,-5.110871E0,-7.426382E0,6.9743075E0,-4.1436166E-1,-8.295134E0,3.328669E0,-4.4677567E-1,3.9765266E-1,-1.7559627E0,1.0544924E1,2.0345733E0,-3.2771885E0,4.057665E0,-6.6171937E0,1.3553907E0,1.406541E0,-9.529207E-1,3.3539906E-1,3.820618E0,2.555318E-1,-1.2253883E0,1.0172714E1,9.2211854E-1,-1.1637402E1,-9.718346E-1,-2.0012093E0,7.4951663E0,-4.4442973E0,4.7690167E0,-9.425056E0,2.884813E0,-3.0777035E0,3.8543217E0,1.2936585E0,-1.3060447E1,1.4709202E1,2.2202952E0,-1.0440175E1,-1.4474264E0,1.5420431E1,1.4388748E0],"split_indices":[0,5,3,3,6,3,6,0,3,1,6,0,1,0,2,1,3,1,5,1,2,2,4,1,2,6,3,0,0,1,3,1,1,0,4,5,0,0,6,3,2,3,6,2,3,5,3,0,0,0,3,6,1,0,6,2,3,6,0,0,0,0,0,0,0,0,0,0,0,0,0,0,0,0,0,0,0,0,0,0,0,0,0,0,0,0,0,0,0,0,0,0,0,0,0,0,0,0,0,0,0,0,0,0,0,0,0],"split_type":[0,0,0,0,0,0,0,0,0,0,0,0,0,0,0,0,0,0,0,0,0,0,0,0,0,0,0,0,0,0,0,0,0,0,0,0,0,0,0,0,0,0,0,0,0,0,0,0,0,0,0,0,0,0,0,0,0,0,0,0,0,0,0,0,0,0,0,0,0,0,0,0,0,0,0,0,0,0,0,0,0,0,0,0,0,0,0,0,0,0,0,0,0,0,0,0,0,0,0,0,0,0,0,0,0,0,0],"sum_hessian":[4.052E3,3.905E3,1.47E2,5.42E2,3.363E3,1.22E2,2.5E1,1.77E2,3.65E2,8.57E2,2.506E3,4.4E1,7.8E1,4E0,2.1E1,1.03E2,7.4E1,1.9E1,3.46E2,4.3E2,4.27E2,7.53E2,1.753E3,4E0,4E1,5.3E1,2.5E1,1E0,3E0,1.1E1,1E1,6.6E1,3.7E1,2.6E1,4.8E1,1.2E1,7E0,1.77E2,1.69E2,4.04E2,2.6E1,3.04E2,1.23E2,5.05E2,2.48E2,1.497E3,2.56E2,3E0,1E0,6E0,3.4E1,4.7E1,6E0,1.6E1,9E0,6E0,5E0,8E0,2E0,1.9E1,4.7E1,2E0,3.5E1,2.5E1,1E0,4.5E1,3E0,7E0,5E0,1.68E2,9E0,1.01E2,6.8E1,2.11E2,1.93E2,5E0,2.1E1,2.92E2,1.2E1,1.6E1,1.07E2,2.96E2,2.09E2,8.7E1,1.61E2,5.52E2,9.45E2,1.4E1,2.42E2,3E0,3E0,9E0,2.5E1,1.1E1,3.6E1,5E0,1E0,1.2E1,4E0,1E0,8E0,1E0,5E0,2E0,3E0,6E0,2E0],"tree_param":{"num_deleted":"0","num_feature":"7","num_nodes":"107","size_leaf_vector":"1"}},{"base_weights":[4.5852292E-2,-4.362356E-2,2.010578E1,-3.8369853E0,3.6780465E-1,6.516647E-2,3.6131752E1,2.4905596E0,-8.0215025E0,1.3071406E0,-2.1186538E0,7.086763E0,-4.9020844E0,4.6434917E1,2.7204828E0,-6.849385E0,3.8156202E0,-5.8872E0,-1.8439123E1,1.3752252E0,-4.397251E1,-7.475306E-1,-7.915093E0,-3.8643885E0,1.2561655E1,6.035147E0,1.8343185E1,1.0345239E1,-2.7642038E0,1.6645452E1,-6.6739426E0,-2.3892323E1,-7.757638E0,-2.6940856E0,2.1242666E0,-1.5837923E1,-2.626623E0,-5.3804307E0,1.8655087E0,-3.0151756E1,-6.649809E0,1.831354E1,-2.4296656E0,1.2140749E0,8.708163E0,-4.7194343E0,9.4797295E-1,1.0420617E0,9.915047E0,-2.2929845E0,3.0177174E0,-1.9842377E-1,-7.740202E0,-3.2222881E0,2.3267915E0,-5.404322E-1,-2.335886E0,1.9089414E0,4.1316402E-1,-1.7999877E0,7.545117E0,-1.229397E0,1.3699226E0,-1.6957399E0,-1.1953187E1,-1.1850567E0,-5.3626056E0,4.895033E-1,6.622826E0],"categories":[],"categories_nodes":[],"categories_segments":[],"categories_sizes":[],"default_left":[0,0,0,0,0,0,0,0,0,0,0,0,0,0,0,0,0,0,0,0,0,0,0,0,0,0,0,0,0,0,0,0,0,0,0,0,0,0,0,0,0,0,0,0,0,0,0,0,0,0,0,0,0,0,0,0,0,0,0,0,0,0,0,0,0,0,0,0,0],"id":11,"left_children":[1,3,5,7,9,11,13,15,17,19,21,23,-1,25,-1,-1,27,29,31,33,35,37,39,-1,41,-1,-1,43,45,47,49,51,53,55,57,-1,-1,59,61,63,65,67,-1,-1,-1,-1,-1,-1,-1,-1,-1,-1,-1,-1,-1,-1,-1,-1,-1,-1,-1,-1,-1,-1,-1,-1,-1,-1,-1],"loss_changes":[7.275522E3,6.3003813E3,5.778712E3,1.0478677E4,8.509096E3,1.1525316E3,2.3673096E3,5.388486E3,5.1832246E3,8.211521E3,7.933768E3,9.27071E2,0E0,1.4797197E3,0E0,0E0,6.5161216E3,3.6388433E3,2.144582E3,8.0557085E3,7.803135E2,9.80375E3,5.173415E3,0E0,8.613415E2,0E0,0E0,8.825074E3,5.887985E3,1.3977684E3,3.207335E3,1.135585E3,7.77538E2,1.8541853E3,7.0560625E3,0E0,0E0,5.673991E3,8.362043E3,2.1493047E3,5.444843E3,2.778103E2,0E0,0E0,0E0,0E0,0E0,0E0,0E0,0E0,0E0,0E0,0E0,0E0,0E0,0E0,0E0,0E0,0E0,0E0,0E0,0E0,0E0,0E0,0E0,0E0,0E0,0E0,0E0],"parents":[2147483647,0,0,1,1,2,2,3,3,4,4,5,5,6,6,7,7,8,8,9,9,10,10,11,11,13,13,16,16,17,17,18,18,19,19,20,20,21,21,22,22,24,24,27,27,28,28,29,29,30,30,31,31,32,32,33,33,34,34,37,37,38,38,39,39,40,40,41,41],"right_children":[2,4,6,8,10,12,14,16,18,20,22,24,-1,26,-1,-1,28,30,32,34,36,38,40,-1,42,-1,-1,44,46,48,50,52,54,56,58,-1,-1,60,62,64,66,68,-1,-1,-1,-1,-1,-1,-1,-1,-1,-1,-1,-1,-1,-1,-1,-1,-1,-1,-1,-1,-1,-1,-1,-1,-1,-1,-1],"split_conditions":[3.69E2,-2.4022498E0,1.16E2,1.4003028E1,2.3541502E1,9.7E1,-3.584999E-1,2.8E1,-2.9814165E0,5E1,2.359338E2,3.4E1,-4.9020844E0,1.5594106E2,2.7204828E0,-6.849385E0,9.6E1,2.5E1,3.3036008E2,4.9E1,1.83E2,2.5772497E1,2.3879712E2,-3.8643885E0,8.019164E-1,6.035147E0,1.8343185E1,8.2E1,1.0009036E1,2.2E1,3.2908016E1,3.5E1,3.5178693E2,4.5E1,5.5E1,-1.5837923E1,-2.626623E0,2.2482582E2,7.4E1,6.1E1,1.45E2,3.4E1,-2.4296656E0,1.2140749E0,8.708163E0,-4.7194343E0,9.4797295E-1,1.0420617E0,9.915047E0,-2.2929845E0,3.0177174E0,-1.9842377E-1,-7.740202E0,-3.2222881E0,2.3267915E0,-5.404322E-1,-2.335886E0,1.9089414E0,4.1316402E-1,-1.7999877E0,7.545117E0,-1.229397E0,1.3699226E0,-1.6957399E0,-1.1953187E1,-1.1850567E0,-5.3626056E0,4.895033E-1,6.622826E0],"split_indices":[2,3,0,5,3,0,3,2,3,4,6,1,0,6,0,0,2,2,6,0,0,3,6,0,3,0,0,2,5,2,5,0,6,0,1,0,0,6,1,2,1,0,0,0,0,0,0,0,0,0,0,0,0,0,0,0,0,0,0,0,0,0,0,0,0,0,0,0,0],"split_type":[0,0,0,0,0,0,0,0,0,0,0,0,0,0,0,0,0,0,0,0,0,0,0,0,0,0,0,0,0,0,0,0,0,0,0,0,0,0,0,0,0,0,0,0,0,0,0,0,0,0,0,0,0,0,0,0,0,0,0,0,0,0,0,0,0,0,0,0,0],"sum_hessian":[4.052E3,4.035E3,1.7E1,3.94E2,3.641E3,8E0,9E0,1.57E2,2.37E2,2.643E3,9.98E2,6E0,2E0,6E0,3E0,7E0,1.5E2,1.98E2,3.9E1,2.64E3,3E0,8.08E2,1.9E2,1E0,5E0,3E0,3E0,7.5E1,7.5E1,6E0,1.92E2,2.5E1,1.4E1,4.1E2,2.23E3,2E0,1E0,2.91E2,5.17E2,9E0,1.81E2,4E0,1E0,5.7E1,1.8E1,2.3E1,5.2E1,4E0,2E0,1.82E2,1E1,2E0,2.3E1,1.2E1,2E0,3.5E2,6E1,3.33E2,1.897E3,2.86E2,5E0,1.61E2,3.56E2,3E0,6E0,1.47E2,3.4E1,1E0,3E0],"tree_param":{"num_deleted":"0","num_feature":"7","num_nodes":"69","size_leaf_vector":"1"}},{"base_weights":[3.0082986E-2,-1.0893809E0,1.156179E0,-4.3500075E-1,-8.960129E0,-4.2425475E0,1.6194658E0,-1.1636959E0,8.282188E0,-6.0185404E0,-3.620982E1,-2.9863794E1,-3.3941581E0,1.4156585E1,8.772942E-1,6.367451E0,-1.5509588E0,-5.4244795E0,1.8300417E1,8.353194E0,-9.160819E0,-5.238008E1,-1.024665E1,-2.6383622E0,-9.879742E0,3.1336614E-1,-7.0117874E0,-2.0590026E0,1.780547E1,3.8240342E0,-1.6300629E-1,-4.5835238E0,1.3757975E1,-5.3044444E-1,-4.221932E0,7.6041455E0,-1.9575151E1,-1.9369575E0,2.3464182E1,1.7786167E0,2.2923668E1,-1.0726217E1,2.1586763E1,-6.1237877E1,-4.27556E0,-3.5005221E0,-2.5741655E-1,-2.422086E0,2.8404678E1,-9.407535E0,8.653515E0,1.5970846E1,-1.8262592E1,1.2303084E1,4.266306E1,3.3982823E0,2.0221674E1,-2.1022801E0,1.7944753E0,-2.766512E-1,-6.6379104E0,1.1313016E1,3.1004112E0,6.386799E-1,-9.278645E-1,-1.4940913E-1,-1.7817179E0,-6.5243344E0,3.3792794E0,-9.40082E0,1.0763651E0,2.4549072E0,-1.1820794E1,9.678183E0,3.8504846E0,-4.418239E0,1.738192E0,7.7585416E0,3.5350573E-1,1.6741246E0,-3.7672317E0,1.1194788E0,1.1459419E1,-5.276228E0,-1.9674517E1,-2.8613825E0,1.0527141E0,9.529762E0,1.2356267E0,-2.371337E0,-8.119814E0,5.7325187E0,-9.730851E-1,-2.5857072E0,6.958708E0,5.671776E0,-1.0369208E1,7.3921604E0,-1.1283462E-1,1.7811378E1,2.3116627E0,-2.0172827E0,1.439981E0,3.4351954E-1,-2.0620377E0,4.1171256E-1,8.57617E0],"categories":[],"categories_nodes":[],"categories_segments":[],"categories_sizes":[],"default_left":[0,0,0,0,0,0,0,0,0,0,0,0,0,0,0,0,0,0,0,0,0,0,0,0,0,0,0,0,0,0,0,0,0,0,0,0,0,0,0,0,0,0,0,0,0,0,0,0,0,0,0,0,0,0,0,0,0,0,0,0,0,0,0,0,0,0,0,0,0,0,0,0,0,0,0,0,0,0,0,0,0,0,0,0,0,0,0,0,0,0,0,0,0,0,0,0,0,0,0,0,0,0,0,0,0,0,0],"id":12,"left_children":[1,3,5,7,9,11,13,15,17,19,21,23,25,27,29,31,33,35,37,39,41,43,45,-1,-1,47,49,51,53,55,57,59,61,63,65,67,69,71,73,75,77,79,81,83,-1,-1,-1,85,87,89,91,93,95,97,99,101,-1,103,105,-1,-1,-1,-1,-1,-1,-1,-1,-1,-1,-1,-1,-1,-1,-1,-1,-1,-1,-1,-1,-1,-1,-1,-1,-1,-1,-1,-1,-1,-1,-1,-1,-1,-1,-1,-1,-1,-1,-1,-1,-1,-1,-1,-1,-1,-1,-1,-1],"loss_changes":[5.110568E3,1.046699E4,5.061713E3,1.1939019E4,1.2286618E4,3.3765254E3,1.7312924E4,5.067146E3,2.0010168E4,6.489241E3,5.76075E3,3.364795E1,2.094539E3,6.190215E3,5.392829E3,6.9424014E3,4.4952744E3,1.1579408E4,8.823537E3,2.4498901E3,5.8630137E3,2.166836E3,8.34259E1,0E0,0E0,6.062509E3,3.0462866E3,6.134635E3,1.1101078E4,1.2196053E4,4.9424897E3,2.2276648E3,3.7919941E3,8.149896E3,2.9128945E3,3.7902131E3,8.284981E3,7.1471694E3,5.8503906E3,1.3446085E3,4.8065137E2,3.4145137E3,1.6370457E3,1.7385742E2,0E0,0E0,0E0,3.0722354E3,4.4057178E2,1.6174644E3,1.4301941E3,1.9765042E3,7.3183643E3,1.1115725E4,8.303672E3,6.51634E3,0E0,1.0140727E4,7.289147E3,0E0,0E0,0E0,0E0,0E0,0E0,0E0,0E0,0E0,0E0,0E0,0E0,0E0,0E0,0E0,0E0,0E0,0E0,0E0,0E0,0E0,0E0,0E0,0E0,0E0,0E0,0E0,0E0,0E0,0E0,0E0,0E0,0E0,0E0,0E0,0E0,0E0,0E0,0E0,0E0,0E0,0E0,0E0,0E0,0E0,0E0,0E0,0E0],"parents":[2147483647,0,0,1,1,2,2,3,3,4,4,5,5,6,6,7,7,8,8,9,9,10,10,11,11,12,12,13,13,14,14,15,15,16,16,17,17,18,18,19,19,20,20,21,21,22,22,25,25,26,26,27,27,28,28,29,29,30,30,31,31,32,32,33,33,34,34,35,35,36,36,37,37,38,38,39,39,40,40,41,41,42,42,43,43,47,47,48,48,49,49,50,50,51,51,52,52,53,53,54,54,55,55,57,57,58,58],"right_children":[2,4,6,8,10,12,14,16,18,20,22,24,26,28,30,32,34,36,38,40,42,44,46,-1,-1,48,50,52,54,56,58,60,62,64,66,68,70,72,74,76,78,80,82,84,-1,-1,-1,86,88,90,92,94,96,98,100,102,-1,104,106,-1,-1,-1,-1,-1,-1,-1,-1,-1,-1,-1,-1,-1,-1,-1,-1,-1,-1,-1,-1,-1,-1,-1,-1,-1,-1,-1,-1,-1,-1,-1,-1,-1,-1,-1,-1,-1,-1,-1,-1,-1,-1,-1,-1,-1,-1,-1,-1],"split_conditions":[1E2,9.4E1,-2.6608334E0,1.68E2,1.86E2,8.217153E0,-1.43375E0,8.654987E0,7E1,5.4E1,1.8439857E2,6.2E1,7.7E1,6.95997E1,1.24E2,7.2E1,2.9964972E2,1.4512064E1,6.95997E1,7.3E1,2.8431086E1,2.08E2,2.34E2,-2.6383622E0,-9.879742E0,6.3E1,1E-1,1.27E2,1.8E2,2.42E2,1.4899833E1,7.9E1,8E1,1.9916498E1,5.2E1,6.87779E0,1.0593584E1,1.5E2,2.0033842E2,1.1416835E2,1.33E2,9.3669195E0,9.7E1,7.968939E0,-4.27556E0,-3.5005221E0,-2.5741655E-1,1.41E2,1.62E2,-2.7897499E0,1.44E2,3.5E1,8.557102E0,1.58E2,1.4685176E1,4.4E1,2.0221674E1,1.74E2,2.65E2,-2.766512E-1,-6.6379104E0,1.1313016E1,3.1004112E0,6.386799E-1,-9.278645E-1,-1.4940913E-1,-1.7817179E0,-6.5243344E0,3.3792794E0,-9.40082E0,1.0763651E0,2.4549072E0,-1.1820794E1,9.678183E0,3.8504846E0,-4.418239E0,1.738192E0,7.7585416E0,3.5350573E-1,1.6741246E0,-3.7672317E0,1.1194788E0,1.1459419E1,-5.276228E0,-1.9674517E1,-2.8613825E0,1.0527141E0,9.529762E0,1.2356267E0,-2.371337E0,-8.119814E0,5.7325187E0,-9.730851E-1,-2.5857072E0,6.958708E0,5.671776E0,-1.0369208E1,7.3921604E0,-1.1283462E-1,1.7811378E1,2.3116627E0,-2.0172827E0,1.439981E0,3.4351954E-1,-2.0620377E0,4.1171256E-1,8.57617E0],"split_indices":[2,2,3,0,0,5,3,5,2,1,6,0,0,6,2,0,6,5,6,0,3,0,0,0,0,0,4,0,0,1,3,1,0,3,1,5,3,1,6,6,0,5,0,5,0,0,0,2,2,3,1,1,5,2,5,0,0,1,1,0,0,0,0,0,0,0,0,0,0,0,0,0,0,0,0,0,0,0,0,0,0,0,0,0,0,0,0,0,0,0,0,0,0,0,0,0,0,0,0,0,0,0,0,0,0,0,0],"split_type":[0,0,0,0,0,0,0,0,0,0,0,0,0,0,0,0,0,0,0,0,0,0,0,0,0,0,0,0,0,0,0,0,0,0,0,0,0,0,0,0,0,0,0,0,0,0,0,0,0,0,0,0,0,0,0,0,0,0,0,0,0,0,0,0,0,0,0,0,0,0,0,0,0,0,0,0,0,0,0,0,0,0,0,0,0,0,0,0,0,0,0,0,0,0,0,0,0,0,0,0,0,0,0,0,0,0,0],"sum_hessian":[4.052E3,2.032E3,2.02E3,1.877E3,1.55E2,1.59E2,1.861E3,1.733E3,1.44E2,1.41E2,1.4E1,4E0,1.55E2,1.03E2,1.758E3,8.4E1,1.649E3,6.1E1,8.3E1,2.5E1,1.16E2,8E0,6E0,1E0,3E0,7.7E1,7.8E1,1.9E1,8.4E1,4.58E2,1.3E3,3.4E1,5E1,1.194E3,4.55E2,3.2E1,2.9E1,1.7E1,6.6E1,1.8E1,7E0,1.11E2,5E0,6E0,2E0,5E0,1E0,7.1E1,6E0,6.8E1,1E1,9E0,1E1,7E1,1.4E1,4.56E2,2E0,6.53E2,6.47E2,2.9E1,5E0,5E0,4.5E1,5.86E2,6.08E2,1.44E2,3.11E2,3E0,2.9E1,1.9E1,1E1,1.4E1,3E0,3.5E1,3.1E1,3E0,1.5E1,6E0,1E0,1.1E1,1E2,3E0,2E0,1E0,5E0,3.2E1,3.9E1,5E0,1E0,6.4E1,4E0,5E0,5E0,2E0,7E0,3E0,7E0,3.5E1,3.5E1,9E0,5E0,5.5E1,4.01E2,3.89E2,2.64E2,6.38E2,9E0],"tree_param":{"num_deleted":"0","num_feature":"7","num_nodes":"107","size_leaf_vector":"1"}},{"base_weights":[2.7375035E-2,-1.15804076E-1,8.67845E0,7.844148E-2,-6.324283E0,1.9022257E1,5.702622E-2,-1.2077984E-1,7.5863085E0,-8.791627E0,1.3161243E1,2.7992764E1,-1.7180355E0,6.596148E0,-8.93783E0,-7.7365923E0,-1.4232497E-2,1.2070711E1,-1.6711226E1,-1.1914623E0,-1.7262566E1,3.8513138E1,-8.308281E-1,1.4198198E1,4.863416E1,-6.7306495E0,1.5832854E1,7.646013E-1,2.2019506E1,-1.3583434E1,8.39484E0,5.633466E0,-1.6268925E1,1.6765882E1,-7.7635296E-2,-1.1824909E1,1.6160744E1,-2.1336657E1,1.044453E1,-3.243929E0,2.732782E1,-3.53894E1,-7.1582847E0,1.6413042E1,2.8435273E0,-1.0364026E1,1.2745194E1,1.8709509E0,9.096811E0,1.8428787E1,2.0481705E1,-5.7066126E0,1.1782358E1,1.7891127E1,-5.8813396E0,1.0343129E1,-1.9304504E0,4.0219555E0,-1.9267246E1,2.8816237E0,7.144684E-1,-3.4748404E0,4.520683E0,-1.24638E0,-8.014094E0,9.230905E0,-4.9007493E-1,-2.8472427E-1,2.7597973E-1,-5.4333764E-1,-1.9798548E1,7.3712845E0,1.8982911E0,-9.680532E0,-2.7312796E0,4.740285E0,-4.0246584E-2,4.28763E0,-2.237528E0,-2.6828907E0,1.2719723E1,-1.1955738E1,6.301575E-2,4.5486293E0,-5.547742E0,-1.3512543E0,-3.7629757E0,5.7096477E0,-2.9645038E0,2.7235322E0,8.203725E0,2.5817072E-1,-2.454759E0,6.0315323E0,1.3552815E0,-5.269343E0,-1.8598527E-1,-2.8660996E0,1.997397E0,-1.6157456E-1,1.7164987E0,-8.466127E0,-3.4196045E0],"categories":[],"categories_nodes":[],"categories_segments":[],"categories_sizes":[],"default_left":[0,0,0,0,0,0,0,0,0,0,0,0,0,0,0,0,0,0,0,0,0,0,0,0,0,0,0,0,0,0,0,0,0,0,0,0,0,0,0,0,0,0,0,0,0,0,0,0,0,0,0,0,0,0,0,0,0,0,0,0,0,0,0,0,0,0,0,0,0,0,0,0,0,0,0,0,0,0,0,0,0,0,0,0,0,0,0,0,0,0,0,0,0,0,0,0,0,0,0,0,0,0,0],"id":13,"left_children":[1,3,5,7,9,11,13,15,17,19,21,23,25,27,29,31,33,35,37,39,41,43,45,47,49,-1,51,53,55,57,59,61,63,65,67,69,71,73,75,77,79,81,83,-1,-1,85,-1,87,-1,-1,89,91,-1,93,95,-1,97,99,101,-1,-1,-1,-1,-1,-1,-1,-1,-1,-1,-1,-1,-1,-1,-1,-1,-1,-1,-1,-1,-1,-1,-1,-1,-1,-1,-1,-1,-1,-1,-1,-1,-1,-1,-1,-1,-1,-1,-1,-1,-1,-1,-1,-1],"loss_changes":[5.021266E3,4.8099023E3,5.884686E3,5.7863887E3,5.9330845E3,5.62962E3,2.2352383E3,3.0582249E3,1.1097711E4,6.9325312E3,4.998155E3,5.289004E3,3.991317E3,1.9618884E3,1.4023623E3,6.0236943E3,3.9569053E3,8.498476E3,2.2325645E3,3.4836726E3,9.087762E3,1.8328105E3,4.5695913E3,2.7260586E3,1.6235371E3,0E0,3.2536514E3,2.0401958E3,1.8567087E3,1.3783467E3,6.242157E0,3.5858574E3,3.938E3,3.657538E3,3.2217258E3,6.932313E3,5.8815117E3,1.5783257E3,1.7211142E2,4.171402E3,2.5657588E3,2.8682559E3,8.881819E3,0E0,0E0,5.8432312E1,0E0,2.0032734E3,0E0,0E0,6.4833374E1,7.2080826E1,0E0,5.7216553E1,7.882146E2,0E0,2.6002277E2,3.4087875E1,3.8281104E2,0E0,0E0,0E0,0E0,0E0,0E0,0E0,0E0,0E0,0E0,0E0,0E0,0E0,0E0,0E0,0E0,0E0,0E0,0E0,0E0,0E0,0E0,0E0,0E0,0E0,0E0,0E0,0E0,0E0,0E0,0E0,0E0,0E0,0E0,0E0,0E0,0E0,0E0,0E0,0E0,0E0,0E0,0E0,0E0],"parents":[2147483647,0,0,1,1,2,2,3,3,4,4,5,5,6,6,7,7,8,8,9,9,10,10,11,11,12,12,13,13,14,14,15,15,16,16,17,17,18,18,19,19,20,20,21,21,22,22,23,23,24,24,26,26,27,27,28,28,29,29,30,30,31,31,32,32,33,33,34,34,35,35,36,36,37,37,38,38,39,39,40,40,41,41,42,42,45,45,47,47,50,50,51,51,53,53,54,54,56,56,57,57,58,58],"right_children":[2,4,6,8,10,12,14,16,18,20,22,24,26,28,30,32,34,36,38,40,42,44,46,48,50,-1,52,54,56,58,60,62,64,66,68,70,72,74,76,78,80,82,84,-1,-1,86,-1,88,-1,-1,90,92,-1,94,96,-1,98,100,102,-1,-1,-1,-1,-1,-1,-1,-1,-1,-1,-1,-1,-1,-1,-1,-1,-1,-1,-1,-1,-1,-1,-1,-1,-1,-1,-1,-1,-1,-1,-1,-1,-1,-1,-1,-1,-1,-1,-1,-1,-1,-1,-1,-1],"split_conditions":[2.86E2,2.28E2,-1.4391641E-1,2.18E2,1.5708164E1,3.69E2,1.14862E1,6.87779E0,3.3669998E2,1.2269167E0,1.4068372E2,1.6E2,1.1384199E1,2.28E2,3.136028E2,8.8E1,7.145796E0,1.32E2,3.5477307E2,2.8082308E1,1.92E2,2.65E2,2.86E2,-1.5191668E0,3.35E2,-6.7306495E0,-1.1566668E0,8.8E1,3.08E2,1.2269167E0,1.53E2,6.8E1,6.302571E0,6.667856E1,1E2,1.29E2,1.92E2,1.9171478E1,2.42E2,8.905908E0,1.06E2,6E-1,2.06E2,1.6413042E1,2.8435273E0,1.72E2,1.2745194E1,1.0163227E1,9.096811E0,1.8428787E1,2.65E2,3.4E1,1.1782358E1,7.3E1,2.8108332E-1,1.0343129E1,2.76E2,1.24E2,4.9174866E1,2.8816237E0,7.144684E-1,-3.4748404E0,4.520683E0,-1.24638E0,-8.014094E0,9.230905E0,-4.9007493E-1,-2.8472427E-1,2.7597973E-1,-5.4333764E-1,-1.9798548E1,7.3712845E0,1.8982911E0,-9.680532E0,-2.7312796E0,4.740285E0,-4.0246584E-2,4.28763E0,-2.237528E0,-2.6828907E0,1.2719723E1,-1.1955738E1,6.301575E-2,4.5486293E0,-5.547742E0,-1.3512543E0,-3.7629757E0,5.7096477E0,-2.9645038E0,2.7235322E0,8.203725E0,2.5817072E-1,-2.454759E0,6.0315323E0,1.3552815E0,-5.269343E0,-1.8598527E-1,-2.8660996E0,1.997397E0,-1.6157456E-1,1.7164987E0,-8.466127E0,-3.4196045E0],"split_indices":[2,1,3,0,3,1,5,5,6,3,6,0,5,0,6,1,5,1,6,5,2,0,0,3,0,0,3,0,1,3,0,0,5,6,2,1,1,5,0,5,0,4,2,0,0,2,0,5,0,0,1,0,0,0,3,0,0,1,6,0,0,0,0,0,0,0,0,0,0,0,0,0,0,0,0,0,0,0,0,0,0,0,0,0,0,0,0,0,0,0,0,0,0,0,0,0,0,0,0,0,0,0,0],"split_type":[0,0,0,0,0,0,0,0,0,0,0,0,0,0,0,0,0,0,0,0,0,0,0,0,0,0,0,0,0,0,0,0,0,0,0,0,0,0,0,0,0,0,0,0,0,0,0,0,0,0,0,0,0,0,0,0,0,0,0,0,0,0,0,0,0,0,0,0,0,0,0,0,0,0,0,0,0,0,0,0,0,0,0,0,0,0,0,0,0,0,0,0,0,0,0,0,0,0,0,0,0,0,0],"sum_hessian":[4.052E3,3.987E3,6.5E1,3.867E3,1.2E2,2.9E1,3.6E1,3.768E3,9.9E1,1.07E2,1.3E1,2E1,9E0,2.1E1,1.5E1,5.1E1,3.717E3,8.4E1,1.5E1,5.7E1,5E1,4E0,9E0,1.3E1,7E0,4E0,5E0,1.6E1,5E0,1.2E1,3E0,2E1,3.1E1,1.3E1,3.704E3,1.2E1,7.2E1,1.3E1,2E0,5.4E1,3E0,1.7E1,3.3E1,2E0,2E0,8E0,1E0,8E0,5E0,4E0,3E0,3E0,2E0,4E0,1.2E1,3E0,2E0,3E0,9E0,2E0,1E0,7E0,1.3E1,1.5E1,1.6E1,7E0,6E0,1.977E3,1.727E3,1.1E1,1E0,3.8E1,3.4E1,6E0,7E0,1E0,1E0,1E1,4.4E1,1E0,2E0,1.5E1,2E0,1.1E1,2.2E1,3E0,5E0,3E0,5E0,2E0,1E0,1E0,2E0,3E0,1E0,3E0,9E0,1E0,1E0,1E0,2E0,3E0,6E0],"tree_param":{"num_deleted":"0","num_feature":"7","num_nodes":"103","size_leaf_vector":"1"}},{"base_weights":[3.311207E-2,-1.0445891E-1,6.696512E0,-5.437726E0,4.6014845E-2,2.0529268E1,-1.6787177E0,-6.069502E0,1.2663761E1,-2.1889225E-1,2.8742192E0,7.9356127E0,3.0433714E1,-1.5646048E1,3.3782396E0,-6.585413E0,1.3838577E1,1.6640236E0,5.1022215E0,-4.8995364E-2,-9.285404E0,1.4932202E1,1.5784535E0,-9.265331E0,1.2914505E1,2.3483098E0,3.402188E1,5.9740515E0,-2.4891493E1,1.2273214E1,-1.1671934E1,-4.9750547E0,-1.513144E1,5.523284E0,7.0407605E-1,-5.464701E-1,1.8451972E0,-4.247918E0,-3.1180307E1,3.1006594E1,-7.9496307E0,1.057077E1,-2.1913327E-1,2.148199E1,-2.0891418E0,5.1054497E0,-4.0487103E0,3.9193237E1,1.00023365E1,-2.404568E0,3.4425535E0,-1.2662289E1,-6.312797E0,2.2675255E1,-8.738773E0,-2.224175E1,1.3916048E1,-5.5059395E0,-1.2884909E0,-1.0562893E0,-4.9615746E0,-2.2540717E-1,2.5945227E0,3.737408E0,2.2753565E-1,7.0136476E-1,-4.950811E0,-1.2892145E1,9.450491E-1,1.2775356E1,-6.917025E0,-6.4549165E0,2.6072693E0,6.722553E-1,7.213126E0,-7.3697624E0,4.6291587E-1,-1.9458963E-1,8.369307E0,-3.009708E0,1.3171669E0,4.214721E0,1.5002757E1,-8.411522E-2,4.0570116E0,-4.395806E0,2.0733964E0,-1.3989242E0,7.9893713E0,-8.816843E0,-7.451254E-1,-9.007122E0,-3.352003E-1,7.1907196E0,-3.9444032E0],"categories":[],"categories_nodes":[],"categories_segments":[],"categories_sizes":[],"default_left":[0,0,0,0,0,0,0,0,0,0,0,0,0,0,0,0,0,0,0,0,0,0,0,0,0,0,0,0,0,0,0,0,0,0,0,0,0,0,0,0,0,0,0,0,0,0,0,0,0,0,0,0,0,0,0,0,0,0,0,0,0,0,0,0,0,0,0,0,0,0,0,0,0,0,0,0,0,0,0,0,0,0,0,0,0,0,0,0,0,0,0,0,0,0,0],"id":14,"left_children":[1,3,5,7,9,11,13,15,17,19,21,23,25,27,29,31,33,-1,-1,35,37,39,41,-1,43,45,47,49,51,53,55,57,59,-1,-1,61,63,65,67,69,71,73,75,77,79,-1,-1,81,83,-1,-1,-1,85,87,89,91,93,-1,-1,-1,-1,-1,-1,-1,-1,-1,-1,-1,-1,-1,-1,-1,-1,-1,-1,-1,-1,-1,-1,-1,-1,-1,-1,-1,-1,-1,-1,-1,-1,-1,-1,-1,-1,-1,-1],"loss_changes":[3.716046E3,3.1878467E3,9.534369E3,1.3233955E3,2.895582E3,3.6252188E3,3.72573E3,1.1798369E3,2.9319336E1,5.4432197E3,5.1480796E3,3.2980693E3,1.6332812E3,2.947127E3,5.364218E3,1.3559854E3,1.1442322E2,0E0,0E0,3.270834E3,7.0367417E3,1.2016461E4,4.8516577E3,0E0,1.8444883E3,9.269601E2,1.4711816E3,4.7676007E2,2.9506646E3,5.662343E3,4.366421E3,7.3091675E2,2.0316968E2,0E0,0E0,5.185372E3,8.317694E3,4.39679E3,4.9938945E3,1.2874744E4,3.347609E3,5.5575645E3,1.0806683E4,1.2959463E3,3.5286554E2,0E0,0E0,2.560914E3,1.4861499E2,0E0,0E0,0E0,7.629955E2,1.9627344E3,1.0895393E3,1.7747432E3,1.6755227E3,0E0,0E0,0E0,0E0,0E0,0E0,0E0,0E0,0E0,0E0,0E0,0E0,0E0,0E0,0E0,0E0,0E0,0E0,0E0,0E0,0E0,0E0,0E0,0E0,0E0,0E0,0E0,0E0,0E0,0E0,0E0,0E0,0E0,0E0,0E0,0E0,0E0,0E0],"parents":[2147483647,0,0,1,1,2,2,3,3,4,4,5,5,6,6,7,7,8,8,9,9,10,10,11,11,12,12,13,13,14,14,15,15,16,16,19,19,20,20,21,21,22,22,24,24,25,25,26,26,27,27,28,28,29,29,30,30,31,31,32,32,35,35,36,36,37,37,38,38,39,39,40,40,41,41,42,42,43,43,44,44,47,47,48,48,52,52,53,53,54,54,55,55,56,56],"right_children":[2,4,6,8,10,12,14,16,18,20,22,24,26,28,30,32,34,-1,-1,36,38,40,42,-1,44,46,48,50,52,54,56,58,60,-1,-1,62,64,66,68,70,72,74,76,78,80,-1,-1,82,84,-1,-1,-1,86,88,90,92,94,-1,-1,-1,-1,-1,-1,-1,-1,-1,-1,-1,-1,-1,-1,-1,-1,-1,-1,-1,-1,-1,-1,-1,-1,-1,-1,-1,-1,-1,-1,-1,-1,-1,-1,-1,-1,-1,-1],"split_conditions":[3.5567456E2,-5.0626674E0,2.9954174E0,7E-1,1.9E2,-1.61475E0,1.0403999E1,1.84E2,9.2E1,1.84E2,1.6117952E1,3.4E1,5.9E1,7.2E1,1.8775301E1,1.39E2,1.14E2,1.6640236E0,5.1022215E0,4E-1,2.0570463E1,1.79E2,9.3E1,-9.265331E0,8.5E1,2.6E1,1.71E2,1.6E1,1.5E2,7.0000005E-1,1.07E2,9.114471E0,4.1E1,5.523284E0,7.0407605E-1,1.78E2,7.5933347E0,1E-1,1E-1,2.1611998E1,8.665152E0,7.5933347E0,1.07E2,3E1,9.8E1,5.1054497E0,-4.0487103E0,6.4E1,1.93E2,-2.404568E0,3.4425535E0,-1.2662289E1,1.2E2,1.0163227E1,5.3E1,2.9598919E1,1.6E2,-5.5059395E0,-1.2884909E0,-1.0562893E0,-4.9615746E0,-2.2540717E-1,2.5945227E0,3.737408E0,2.2753565E-1,7.0136476E-1,-4.950811E0,-1.2892145E1,9.450491E-1,1.2775356E1,-6.917025E0,-6.4549165E0,2.6072693E0,6.722553E-1,7.213126E0,-7.3697624E0,4.6291587E-1,-1.9458963E-1,8.369307E0,-3.009708E0,1.3171669E0,4.214721E0,1.5002757E1,-8.411522E-2,4.0570116E0,-4.395806E0,2.0733964E0,-1.3989242E0,7.9893713E0,-8.816843E0,-7.451254E-1,-9.007122E0,-3.352003E-1,7.1907196E0,-3.9444032E0],"split_indices":[6,3,3,4,0,3,3,1,2,0,6,2,0,1,5,1,0,0,0,4,5,1,2,0,1,0,0,0,2,4,0,5,0,0,0,0,3,4,4,5,6,3,2,0,2,0,0,1,0,0,0,0,0,5,1,5,0,0,0,0,0,0,0,0,0,0,0,0,0,0,0,0,0,0,0,0,0,0,0,0,0,0,0,0,0,0,0,0,0,0,0,0,0,0,0],"split_type":[0,0,0,0,0,0,0,0,0,0,0,0,0,0,0,0,0,0,0,0,0,0,0,0,0,0,0,0,0,0,0,0,0,0,0,0,0,0,0,0,0,0,0,0,0,0,0,0,0,0,0,0,0,0,0,0,0,0,0,0,0,0,0,0,0,0,0,0,0,0,0,0,0,0,0,0,0,0,0,0,0,0,0,0,0,0,0,0,0,0,0,0,0,0,0],"sum_hessian":[4.052E3,3.971E3,8.1E1,1.08E2,3.863E3,3E1,5.1E1,1.05E2,3E0,3.533E3,3.3E2,1.4E1,1.6E1,1.3E1,3.8E1,1.03E2,2E0,2E0,1E0,3.469E3,6.4E1,3.1E1,2.99E2,1E0,1.3E1,2E0,1.4E1,4E0,9E0,2.4E1,1.4E1,8.8E1,1.5E1,1E0,1E0,2.748E3,7.21E2,5.3E1,1.1E1,1.8E1,1.3E1,4.9E1,2.5E2,8E0,5E0,1E0,1E0,1.1E1,3E0,1E0,3E0,4E0,5E0,1.6E1,8E0,1E1,4E0,3E0,8.5E1,2E0,1.3E1,2.689E3,5.9E1,6.6E1,6.55E2,3.5E1,1.8E1,8E0,3E0,1.5E1,3E0,7E0,6E0,3.1E1,1.8E1,1.6E1,2.34E2,2E0,6E0,2E0,3E0,4E0,7E0,1E0,2E0,3E0,2E0,2E0,1.4E1,1E0,7E0,7E0,3E0,3E0,1E0],"tree_param":{"num_deleted":"0","num_feature":"7","num_nodes":"95","size_leaf_vector":"1"}},{"base_weights":[2.1144662E-2,-7.381917E-2,7.6254253E0,-2.0360503E-1,5.15584E0,1.5277145E1,-3.6687176E0,-5.2091837E-2,-6.2193985E0,3.53696E0,1.0270752E1,6.921501E0,2.3171356E1,1.3806873E-2,-5.7968698E0,-7.686916E-1,8.591604E-1,-1.1793414E1,2.9876382E0,7.5047565E0,-2.1457539E1,1.1073633E1,-4.428685E0,1.2577597E0,3.4002377E1,-1.43335905E1,2.703081E0,-4.2022586E0,-2.0287587E-1,1.6820481E0,-1.7676041E0,-4.591341E0,-3.1312157E1,-4.6658754E0,2.4118711E1,-6.757849E0,8.550175E0,1.0832044E1,-3.7012024E1,5.649678E0,2.900631E0,-2.789319E0,5.2284036E0,-1.0933388E0,3.85903E1,-5.0955563E0,-1.3545594E0,6.054141E0,-5.8800797E0,-1.9836732E0,5.488361E-1,4.4526094E-1,-3.8614115E-1,8.004816E-1,-9.470512E-1,-8.5941976E-1,4.4543395E0,-5.961979E0,8.853734E-1,5.013667E0,-1.0688379E1,-8.667438E0,-5.0734776E-1,1.2724868E1,1.4552999E0,6.3644075E0,1.4991144E0,-1.3136787E0,4.718856E0,-1.3093267E1,-2.759868E0,-3.1510804E0,2.7357926E0,2.5143824E0,9.981956E-2,1.3819717E1,2.485263E0,-1.6942017E0,2.289392E0,-1.9862028E0,-4.3765414E-1],"categories":[],"categories_nodes":[],"categories_segments":[],"categories_sizes":[],"default_left":[0,0,0,0,0,0,0,0,0,0,0,0,0,0,0,0,0,0,0,0,0,0,0,0,0,0,0,0,0,0,0,0,0,0,0,0,0,0,0,0,0,0,0,0,0,0,0,0,0,0,0,0,0,0,0,0,0,0,0,0,0,0,0,0,0,0,0,0,0,0,0,0,0,0,0,0,0,0,0,0,0],"id":15,"left_children":[1,3,5,7,9,11,13,15,17,19,-1,21,23,25,-1,27,29,31,33,35,37,39,-1,41,43,45,47,49,51,53,55,57,59,61,63,-1,65,67,69,-1,71,-1,73,-1,75,-1,-1,77,79,-1,-1,-1,-1,-1,-1,-1,-1,-1,-1,-1,-1,-1,-1,-1,-1,-1,-1,-1,-1,-1,-1,-1,-1,-1,-1,-1,-1,-1,-1,-1,-1],"loss_changes":[2.9273625E3,2.7187078E3,4.3770283E3,3.561709E3,4.4453813E3,1.8184556E3,1.2108518E3,2.4905613E3,4.9619707E3,9.384131E3,0E0,1.6040151E3,3.517433E3,7.332583E2,0E0,4.146953E3,3.6321858E3,8.290761E3,6.096432E3,2.7355864E3,6.9301387E3,8.3313245E2,0E0,3.000848E2,1.8678496E3,1.4118042E0,4.9580185E2,4.4020703E3,3.356726E3,6.112099E3,7.3524565E3,5.245585E3,3.911621E3,1.9689384E3,3.3197515E3,0E0,3.4488818E3,4.413553E2,1.2586113E3,0E0,7.6263837E2,0E0,7.438838E1,0E0,1.6573398E3,0E0,0E0,2.6455856E2,6.713196E0,0E0,0E0,0E0,0E0,0E0,0E0,0E0,0E0,0E0,0E0,0E0,0E0,0E0,0E0,0E0,0E0,0E0,0E0,0E0,0E0,0E0,0E0,0E0,0E0,0E0,0E0,0E0,0E0,0E0,0E0,0E0,0E0],"parents":[2147483647,0,0,1,1,2,2,3,3,4,4,5,5,6,6,7,7,8,8,9,9,11,11,12,12,13,13,15,15,16,16,17,17,18,18,19,19,20,20,21,21,23,23,24,24,25,25,26,26,27,27,28,28,29,29,30,30,31,31,32,32,33,33,34,34,36,36,37,37,38,38,40,40,42,42,44,44,47,47,48,48],"right_children":[2,4,6,8,10,12,14,16,18,20,-1,22,24,26,-1,28,30,32,34,36,38,40,-1,42,44,46,48,50,52,54,56,58,60,62,64,-1,66,68,70,-1,72,-1,74,-1,76,-1,-1,78,80,-1,-1,-1,-1,-1,-1,-1,-1,-1,-1,-1,-1,-1,-1,-1,-1,-1,-1,-1,-1,-1,-1,-1,-1,-1,-1,-1,-1,-1,-1,-1,-1],"split_conditions":[3.08E2,3.360171E1,1.4016665E0,3.029566E1,2.02E2,1.5594106E2,1.92E2,1.09E2,3.3323947E2,1.59E2,1.0270752E1,3.69E2,1.14E2,6.4E1,-5.7968698E0,4.1077908E1,2.378942E1,1.41E2,1.42E2,5.6296105E0,2.8952005E2,1.24E2,-4.428685E0,3.4E1,-3.6084998E0,5.4E1,1.2851916E1,7E-1,2.0288235E2,1.9E2,1.92E2,7.6E1,6.283929E0,4E1,3.1581665E1,-6.757849E0,2.8367816E2,1.62E2,1.83E2,5.649678E0,1.46E2,-2.789319E0,2.0421871E1,-1.0933388E0,-3.584999E-1,-5.0955563E0,-1.3545594E0,1.5373334E0,1.86E2,-1.9836732E0,5.488361E-1,4.4526094E-1,-3.8614115E-1,8.004816E-1,-9.470512E-1,-8.5941976E-1,4.4543395E0,-5.961979E0,8.853734E-1,5.013667E0,-1.0688379E1,-8.667438E0,-5.0734776E-1,1.2724868E1,1.4552999E0,6.3644075E0,1.4991144E0,-1.3136787E0,4.718856E0,-1.3093267E1,-2.759868E0,-3.1510804E0,2.7357926E0,2.5143824E0,9.981956E-2,1.3819717E1,2.485263E0,-1.6942017E0,2.289392E0,-1.9862028E0,-4.3765414E-1],"split_indices":[2,5,3,5,1,6,0,0,6,0,0,1,0,1,0,6,3,1,0,6,6,0,0,1,3,0,3,4,6,1,1,1,6,2,5,0,6,0,0,0,0,0,5,0,3,0,0,3,0,0,0,0,0,0,0,0,0,0,0,0,0,0,0,0,0,0,0,0,0,0,0,0,0,0,0,0,0,0,0,0,0],"split_type":[0,0,0,0,0,0,0,0,0,0,0,0,0,0,0,0,0,0,0,0,0,0,0,0,0,0,0,0,0,0,0,0,0,0,0,0,0,0,0,0,0,0,0,0,0,0,0,0,0,0,0,0,0,0,0,0,0,0,0,0,0,0,0,0,0,0,0,0,0,0,0,0,0,0,0,0,0,0,0,0,0],"sum_hessian":[4.052E3,4.003E3,4.9E1,3.907E3,9.6E1,2.9E1,2E1,3.812E3,9.5E1,9.2E1,4E0,1.5E1,1.4E1,1.7E1,3E0,2.134E3,1.678E3,5.9E1,3.6E1,8E1,1.2E1,1.3E1,2E0,5E0,9E0,2E0,1.5E1,3.01E2,1.833E3,1.278E3,4E2,4.4E1,1.5E1,2.7E1,9E0,2E0,7.8E1,4E0,8E0,6E0,7E0,1E0,4E0,1E0,8E0,1E0,1E0,1.1E1,4E0,2.15E2,8.6E1,7.17E2,1.116E3,1.062E3,2.16E2,3.76E2,2.4E1,1.4E1,3E1,1E0,1.4E1,2E0,2.5E1,4E0,5E0,1.6E1,6.2E1,1E0,3E0,6E0,2E0,2E0,5E0,2E0,2E0,6E0,2E0,1E0,1E1,3E0,1E0],"tree_param":{"num_deleted":"0","num_feature":"7","num_nodes":"81","size_leaf_vector":"1"}},{"base_weights":[1.4067183E-2,-7.330577E-2,7.010612E0,7.318685E-1,-9.234958E-1,1.7155981E1,2.3906437E-1,1.3078183E-1,5.4596806E0,-8.141045E0,-5.03734E-1,2.2421242E1,-9.510372E0,2.5950602E1,-2.4289935E0,-6.3648576E-1,4.004796E0,8.2920885E0,-5.865584E0,-1.899367E1,3.5427275E-1,6.6598473E0,-8.455402E-1,2.3662338E0,2.8409994E1,-3.3935432E0,-6.1590844E-1,-2.3523836E0,1.4030155E1,9.183784E0,-4.7023582E0,-3.8371557E-1,-1.1386311E1,7.825527E0,-2.9308276E0,1.5460061E0,1.5168019E1,1.1477876E1,-1.5187302E1,2.76197E1,-2.1679146E1,3.9359353E0,-2.0777103E1,-1.0621238E1,1.4162362E1,-1.3278315E0,5.0130515E0,-3.5217488E0,8.8273735E0,3.577064E1,2.9058762E0,-1.9124586E1,-7.355877E-1,-2.4687337E-2,-2.1644092E0,-5.754167E-1,-7.1648345E0,1.2590367E0,4.8356833E0,4.3533155E-1,-4.158538E0,-2.1768098E0,1.2894219E0,5.012331E0,-4.4895487E0,1.1647846E0,6.5320773E0,-6.6960344E0,-1.0782498E0,1.2254952E0,1.120337E1,4.0610462E-1,-8.48959E0,-1.2004126E0,3.1928167E0,-7.8630214E0,-3.523453E-1,-3.8013463E0,6.0940022E0,5.7558613E0,-1.0068425E0,-2.0590962E-1,-1.5142833E0,7.6113586E0,6.1128455E-1,3.972977E0,8.822983E-1,2.6418996E0,1.382062E1,-2.3555787E0,2.732736E0,-2.1098939E-1,-8.447822E0,2.4583604E0,-2.8813233E0],"categories":[],"categories_nodes":[],"categories_segments":[],"categories_sizes":[],"default_left":[0,0,0,0,0,0,0,0,0,0,0,0,0,0,0,0,0,0,0,0,0,0,0,0,0,0,0,0,0,0,0,0,0,0,0,0,0,0,0,0,0,0,0,0,0,0,0,0,0,0,0,0,0,0,0,0,0,0,0,0,0,0,0,0,0,0,0,0,0,0,0,0,0,0,0,0,0,0,0,0,0,0,0,0,0,0,0,0,0,0,0,0,0,0,0],"id":16,"left_children":[1,3,5,7,9,11,13,15,17,19,21,23,25,27,29,31,33,35,37,39,41,43,45,47,49,-1,-1,-1,-1,-1,51,53,55,57,59,61,63,65,67,69,71,73,75,77,79,81,83,-1,85,87,89,91,93,-1,-1,-1,-1,-1,-1,-1,-1,-1,-1,-1,-1,-1,-1,-1,-1,-1,-1,-1,-1,-1,-1,-1,-1,-1,-1,-1,-1,-1,-1,-1,-1,-1,-1,-1,-1,-1,-1,-1,-1,-1,-1],"loss_changes":[2.4781484E3,2.741619E3,3.4308906E3,5.8449204E3,5.89766E3,3.0213403E3,2.18963E3,5.4301606E3,7.4906777E3,9.871752E3,4.5158726E3,1.9745518E3,3.0512299E1,2.4770083E3,2.3223042E3,4.139415E3,8.0256807E3,8.604272E3,7.772847E3,6.4821895E3,4.6985903E3,1.1041156E4,4.976795E3,5.5931067E2,2.336504E3,0E0,0E0,0E0,0E0,0E0,1.5878027E3,3.069412E3,4.0953828E3,5.8008057E3,5.19318E3,2.332448E3,4.5186074E3,1.2448386E3,2.4832202E3,5.3406396E2,6.899252E3,2.8639795E3,9.277197E2,1.9061394E3,5.256992E3,3.8763552E3,8.0652666E3,0E0,6.502588E1,2.3711113E3,3.3845737E2,9.787937E2,1.9002961E3,0E0,0E0,0E0,0E0,0E0,0E0,0E0,0E0,0E0,0E0,0E0,0E0,0E0,0E0,0E0,0E0,0E0,0E0,0E0,0E0,0E0,0E0,0E0,0E0,0E0,0E0,0E0,0E0,0E0,0E0,0E0,0E0,0E0,0E0,0E0,0E0,0E0,0E0,0E0,0E0,0E0,0E0],"parents":[2147483647,0,0,1,1,2,2,3,3,4,4,5,5,6,6,7,7,8,8,9,9,10,10,11,11,12,12,13,13,14,14,15,15,16,16,17,17,18,18,19,19,20,20,21,21,22,22,23,23,24,24,30,30,31,31,32,32,33,33,34,34,35,35,36,36,37,37,38,38,39,39,40,40,41,41,42,42,43,43,44,44,45,45,46,46,48,48,49,49,50,50,51,51,52,52],"right_children":[2,4,6,8,10,12,14,16,18,20,22,24,26,28,30,32,34,36,38,40,42,44,46,48,50,-1,-1,-1,-1,-1,52,54,56,58,60,62,64,66,68,70,72,74,76,78,80,82,84,-1,86,88,90,92,94,-1,-1,-1,-1,-1,-1,-1,-1,-1,-1,-1,-1,-1,-1,-1,-1,-1,-1,-1,-1,-1,-1,-1,-1,-1,-1,-1,-1,-1,-1,-1,-1,-1,-1,-1,-1,-1,-1,-1,-1,-1,-1],"split_conditions":[3.08E2,1.01E2,2.76E2,1.43E2,1.05E2,3.020673E2,1.13E2,1.24E2,1.93E2,1.5328561E1,1.09E2,3.660718E1,1.84E2,3.69E2,7.6367526E0,1.19E2,1.51E2,7E1,1.8316682E-1,7.0332823E0,1.39E2,6.9E1,2.7785254E1,5.6296105E0,1E-1,-3.3935432E0,-6.1590844E-1,-2.3523836E0,1.4030155E1,9.183784E0,1.89E2,1.49E1,2.1114198E2,8.7E1,2.6501813E2,4.4E1,5.4E0,3.2395093E2,2.34E2,1.19E2,7.2E1,1.4899833E1,9.8E1,3.508609E2,2.950302E2,2.4158167E1,9E1,-3.5217488E0,3.35E2,1.77E2,2.34E2,-2.6608334E0,3.35E2,-2.4687337E-2,-2.1644092E0,-5.754167E-1,-7.1648345E0,1.2590367E0,4.8356833E0,4.3533155E-1,-4.158538E0,-2.1768098E0,1.2894219E0,5.012331E0,-4.4895487E0,1.1647846E0,6.5320773E0,-6.6960344E0,-1.0782498E0,1.2254952E0,1.120337E1,4.0610462E-1,-8.48959E0,-1.2004126E0,3.1928167E0,-7.8630214E0,-3.523453E-1,-3.8013463E0,6.0940022E0,5.7558613E0,-1.0068425E0,-2.0590962E-1,-1.5142833E0,7.6113586E0,6.1128455E-1,3.972977E0,8.822983E-1,2.6418996E0,1.382062E1,-2.3555787E0,2.732736E0,-2.1098939E-1,-8.447822E0,2.4583604E0,-2.8813233E0],"split_indices":[0,1,1,2,1,6,2,0,2,5,1,6,1,0,5,0,0,0,3,6,2,0,3,6,4,0,0,0,0,0,2,4,6,1,6,1,4,6,2,0,0,3,0,6,6,3,2,0,0,1,1,3,1,0,0,0,0,0,0,0,0,0,0,0,0,0,0,0,0,0,0,0,0,0,0,0,0,0,0,0,0,0,0,0,0,0,0,0,0,0,0,0,0,0,0],"split_type":[0,0,0,0,0,0,0,0,0,0,0,0,0,0,0,0,0,0,0,0,0,0,0,0,0,0,0,0,0,0,0,0,0,0,0,0,0,0,0,0,0,0,0,0,0,0,0,0,0,0,0,0,0,0,0,0,0,0,0,0,0,0,0,0,0,0,0,0,0,0,0,0,0,0,0,0,0,0,0,0,0,0,0,0,0,0,0,0,0,0,0,0,0,0,0],"sum_hessian":[4.052E3,4.003E3,4.9E1,2.056E3,1.947E3,1.9E1,3E1,1.825E3,2.31E2,1.06E2,1.841E3,1.6E1,3E0,2E0,2.8E1,1.524E3,3.01E2,1.85E2,4.6E1,4.6E1,6E1,8.3E1,1.758E3,4E0,1.2E1,2E0,1E0,1E0,1E0,1E0,2.7E1,1.49E3,3.4E1,1.94E2,1.07E2,9.4E1,9.1E1,1.6E1,3E1,2E0,4.4E1,5.2E1,8E0,2.5E1,5.8E1,1.625E3,1.33E2,1E0,3E0,9E0,3E0,5E0,2.2E1,1.428E3,6.2E1,2E1,1.4E1,1.36E2,5.8E1,7.7E1,3E1,2.2E1,7.2E1,8.7E1,4E0,1E1,6E0,1.8E1,1.2E1,1E0,1E0,1E1,3.4E1,2.4E1,2.8E1,6E0,2E0,2.4E1,1E0,4.5E1,1.3E1,1.387E3,2.38E2,1.6E1,1.17E2,1E0,2E0,3E0,6E0,1E0,2E0,2E0,3E0,1.1E1,1.1E1],"tree_param":{"num_deleted":"0","num_feature":"7","num_nodes":"95","size_leaf_vector":"1"}},{"base_weights":[1.7152313E-2,-8.610572E-2,5.0186615E0,6.4811334E-2,-4.655719E0,1.5195072E1,-1.144558E0,-1.0344435E-1,5.6752596E0,-1.8698736E0,-2.1421679E1,4.615325E0,2.3636316E1,1.668461E1,-3.8328106E0,-2.9531422E-1,4.213675E0,7.284076E0,-1.1463079E1,-8.018631E0,4.655109E0,-3.3746544E1,2.7669046E0,1.6190992E1,-7.537258E0,3.566206E1,1.3834813E1,-3.360997E0,3.0080448E1,-7.802632E0,9.507769E0,3.34107E-1,-1.7742954E0,1.8305445E0,1.2022091E1,6.1044836E0,1.3370702E1,-6.708903E0,-3.5969663E0,4.9791393E0,-1.7622438E1,2.692261E1,1.9722606E-1,-3.6023685E1,-1.3047009E0,6.834974E0,-3.2462265E0,2.299656E1,-8.451413E-1,-7.3182154E0,2.1473477E0,8.399162E0,4.4887386E1,6.254368E-1,1.871015E1,3.408133E0,1.1632092E1,-2.259295E1,-2.7699354E0,1.5958682E1,-3.904268E0,1.00740995E-2,1.8059989E0,-2.8877127E0,-2.859766E-1,8.3776677E-1,-6.42943E0,8.191351E0,1.0834559E-1,2.2221115E0,-6.1157904E0,-1.6296438E0,1.1121163E0,8.337971E0,-6.3421386E-1,2.3949165E0,-6.7439876E0,1.516099E-2,1.2105067E1,-2.9775136E0,3.2253063E0,-1.1854826E1,-4.061575E0,3.382303E0,-2.3042805E0,1.035902E0,7.864401E0,-6.392933E-1,2.1407998E0,5.062248E0,-1.2826252E0,1.5167018E1,3.3315058E0,-3.352596E0,2.4852388E0,7.423388E0,1.9468552E0,-2.0890422E0,-1.0111152E1,1.6613153E0,-4.8337393E0,-1.4305328E0,6.7685776E0],"categories":[],"categories_nodes":[],"categories_segments":[],"categories_sizes":[],"default_left":[0,0,0,0,0,0,0,0,0,0,0,0,0,0,0,0,0,0,0,0,0,0,0,0,0,0,0,0,0,0,0,0,0,0,0,0,0,0,0,0,0,0,0,0,0,0,0,0,0,0,0,0,0,0,0,0,0,0,0,0,0,0,0,0,0,0,0,0,0,0,0,0,0,0,0,0,0,0,0,0,0,0,0,0,0,0,0,0,0,0,0,0,0,0,0,0,0,0,0,0,0,0,0],"id":17,"left_children":[1,3,5,7,9,11,13,15,17,19,21,23,25,27,29,31,33,35,37,39,41,43,45,47,49,51,53,-1,55,57,59,61,63,65,67,69,-1,-1,71,73,75,77,79,81,-1,83,-1,85,-1,-1,87,89,91,93,95,-1,-1,97,99,101,-1,-1,-1,-1,-1,-1,-1,-1,-1,-1,-1,-1,-1,-1,-1,-1,-1,-1,-1,-1,-1,-1,-1,-1,-1,-1,-1,-1,-1,-1,-1,-1,-1,-1,-1,-1,-1,-1,-1,-1,-1,-1,-1],"loss_changes":[2.0935876E3,2.7395222E3,5.1603867E3,3.6311719E3,5.8917793E3,2.6594043E3,2.5562734E3,3.0950386E3,3.1716123E3,4.4505864E3,5.4595537E3,2.23215E3,1.510418E3,2.9520767E3,2.5103325E3,3.3304302E3,2.9367405E3,4.2579756E3,7.769619E2,7.2029453E3,5.35505E3,6.466406E2,4.608883E2,1.0996733E3,1.3583937E3,1.3835479E3,6.966997E2,0E0,3.7319727E2,2.6170854E3,1.8058517E3,4.288789E3,6.8755E3,2.8123777E3,6.5838076E3,3.6360303E3,0E0,0E0,1.13966545E2,4.104371E3,4.2839707E3,3.2454102E3,5.020809E3,3.2880566E2,0E0,4.732463E2,0E0,2.868401E2,0E0,0E0,1.4326509E2,3.9439526E2,3.9618457E2,4.5409122E2,4.2938037E2,0E0,0E0,1.3282202E3,3.1928887E3,1.3393811E3,0E0,0E0,0E0,0E0,0E0,0E0,0E0,0E0,0E0,0E0,0E0,0E0,0E0,0E0,0E0,0E0,0E0,0E0,0E0,0E0,0E0,0E0,0E0,0E0,0E0,0E0,0E0,0E0,0E0,0E0,0E0,0E0,0E0,0E0,0E0,0E0,0E0,0E0,0E0,0E0,0E0,0E0,0E0],"parents":[2147483647,0,0,1,1,2,2,3,3,4,4,5,5,6,6,7,7,8,8,9,9,10,10,11,11,12,12,13,13,14,14,15,15,16,16,17,17,18,18,19,19,20,20,21,21,22,22,23,23,24,24,25,25,26,26,28,28,29,29,30,30,31,31,32,32,33,33,34,34,35,35,38,38,39,39,40,40,41,41,42,42,43,43,45,45,47,47,50,50,51,51,52,52,53,53,54,54,57,57,58,58,59,59],"right_children":[2,4,6,8,10,12,14,16,18,20,22,24,26,28,30,32,34,36,38,40,42,44,46,48,50,52,54,-1,56,58,60,62,64,66,68,70,-1,-1,72,74,76,78,80,82,-1,84,-1,86,-1,-1,88,90,92,94,96,-1,-1,98,100,